{"learner":{"attributes":{"best_iteration":"301","best_score":"27.775479447548776"},"feature_names":["dia","franja","barrio"],"feature_types":["int","float","int"],"gradient_booster":{"model":{"gbtree_model_param":{"num_parallel_tree":"1","num_trees":"332"},"iteration_indptr":[0,1,2,3,4,5,6,7,8,9,10,11,12,13,14,15,16,17,18,19,20,21,22,23,24,25,26,27,28,29,30,31,32,33,34,35,36,37,38,39,40,41,42,43,44,45,46,47,48,49,50,51,52,53,54,55,56,57,58,59,60,61,62,63,64,65,66,67,68,69,70,71,72,73,74,75,76,77,78,79,80,81,82,83,84,85,86,87,88,89,90,91,92,93,94,95,96,97,98,99,100,101,102,103,104,105,106,107,108,109,110,111,112,113,114,115,116,117,118,119,120,121,122,123,124,125,126,127,128,129,130,131,132,133,134,135,136,137,138,139,140,141,142,143,144,145,146,147,148,149,150,151,152,153,154,155,156,157,158,159,160,161,162,163,164,165,166,167,168,169,170,171,172,173,174,175,176,177,178,179,180,181,182,183,184,185,186,187,188,189,190,191,192,193,194,195,196,197,198,199,200,201,202,203,204,205,206,207,208,209,210,211,212,213,214,215,216,217,218,219,220,221,222,223,224,225,226,227,228,229,230,231,232,233,234,235,236,237,238,239,240,241,242,243,244,245,246,247,248,249,250,251,252,253,254,255,256,257,258,259,260,261,262,263,264,265,266,267,268,269,270,271,272,273,274,275,276,277,278,279,280,281,282,283,284,285,286,287,288,289,290,291,292,293,294,295,296,297,298,299,300,301,302,303,304,305,306,307,308,309,310,311,312,313,314,315,316,317,318,319,320,321,322,323,324,325,326,327,328,329,330,331,332],"tree_info":[0,0,0,0,0,0,0,0,0,0,0,0,0,0,0,0,0,0,0,0,0,0,0,0,0,0,0,0,0,0,0,0,0,0,0,0,0,0,0,0,0,0,0,0,0,0,0,0,0,0,0,0,0,0,0,0,0,0,0,0,0,0,0,0,0,0,0,0,0,0,0,0,0,0,0,0,0,0,0,0,0,0,0,0,0,0,0,0,0,0,0,0,0,0,0,0,0,0,0,0,0,0,0,0,0,0,0,0,0,0,0,0,0,0,0,0,0,0,0,0,0,0,0,0,0,0,0,0,0,0,0,0,0,0,0,0,0,0,0,0,0,0,0,0,0,0,0,0,0,0,0,0,0,0,0,0,0,0,0,0,0,0,0,0,0,0,0,0,0,0,0,0,0,0,0,0,0,0,0,0,0,0,0,0,0,0,0,0,0,0,0,0,0,0,0,0,0,0,0,0,0,0,0,0,0,0,0,0,0,0,0,0,0,0,0,0,0,0,0,0,0,0,0,0,0,0,0,0,0,0,0,0,0,0,0,0,0,0,0,0,0,0,0,0,0,0,0,0,0,0,0,0,0,0,0,0,0,0,0,0,0,0,0,0,0,0,0,0,0,0,0,0,0,0,0,0,0,0,0,0,0,0,0,0,0,0,0,0,0,0,0,0,0,0,0,0,0,0,0,0,0,0,0,0,0,0,0,0,0,0,0,0,0,0,0,0,0,0,0,0,0,0,0,0,0,0,0,0,0,0,0,0],"trees":[{"base_weights":[-1.0590607E-1,3.7621334E1,-2.9881208E1,2.1966455E1,5.388715E1,-1.4933587E1,-6.505209E1,8.414253E1,1.4925994E0,-5.9480865E1,5.835788E0,-8.410344E1,-9.119975E0,-1.5898515E1,1.3145575E2,1.1264912E1,-3.6777493E1,-1.1166637E1,-8.246452E1,1.4854791E2,-6.966748E0,-1.0749497E1,-8.661882E1,-3.999619E0,-5.9208765E0,1.9227086E2,6.9832794E1,-1.9297506E1,4.2238445E1,-1.1500149E1,-1.6112906E1,-2.3364195E1,1.1271838E0,-6.458179E1,-9.986072E1,1.0974567E1,2.4629463E1,-1.7085E1,1.0456651E2,-9.016839E1,-1.102227E1,-1.4119958E1,1.5050945E0,1.6690174E1,4.1928562E1,4.6665626E0,1.1694845E1,4.7264466E0,-1.0376593E1,2.0250929E1,-6.0612124E-1,7.4649656E-1,-5.974761E0,-4.7129183E0,-3.0499423E0,-2.4122531E0,6.7118526E-1,-1.5426107E1,-4.193351E0,-1.3276704E1,-1.6883858E1,4.2583346E0,-6.537124E0,1.0721081E1,1.679143E1,-1.2522827E1,-1.492528E1,-1.6049834E0,-2.3610134E0,-1.8680961E-1,2.2117083E0],"categories":[],"categories_nodes":[],"categories_segments":[],"categories_sizes":[],"default_left":[0,0,0,0,0,0,0,0,0,0,0,0,0,0,0,0,0,0,0,0,0,0,0,0,0,0,0,0,0,0,0,0,0,0,0,0,0,0,0,0,0,0,0,0,0,0,0,0,0,0,0,0,0,0,0,0,0,0,0,0,0,0,0,0,0,0,0,0,0,0,0],"id":0,"left_children":[1,3,5,7,-1,9,11,13,15,17,19,21,23,-1,25,27,29,31,33,35,37,-1,39,-1,41,43,45,47,49,-1,51,53,55,57,59,-1,-1,61,63,65,-1,67,69,-1,-1,-1,-1,-1,-1,-1,-1,-1,-1,-1,-1,-1,-1,-1,-1,-1,-1,-1,-1,-1,-1,-1,-1,-1,-1,-1,-1],"loss_changes":[6.417642E6,1.2445737E7,1.677656E6,3.057582E6,0E0,2.0746882E6,1.01366725E6,5.3167715E6,6.765833E5,7.9082125E5,2.796463E6,1.82325E4,1.3139881E4,0E0,1.7704335E6,1.3649032E6,2.9247522E5,3.466585E4,1.43808E5,1.1315775E5,1.5873591E6,0E0,2.38E4,0E0,1.2563797E4,1.605869E6,6.1543125E4,1.7812399E6,2.9960348E6,0E0,1.1693312E5,2.3259453E3,6.5026387E3,3.2397E5,2.4103E4,0E0,0E0,1.4963354E6,1.44075E4,2.128625E4,0E0,3.1635547E2,3.8846038E3,0E0,0E0,0E0,0E0,0E0,0E0,0E0,0E0,0E0,0E0,0E0,0E0,0E0,0E0,0E0,0E0,0E0,0E0,0E0,0E0,0E0,0E0,0E0,0E0,0E0,0E0,0E0,0E0],"parents":[2147483647,0,0,1,1,2,2,3,3,5,5,6,6,7,7,8,8,9,9,10,10,11,11,12,12,14,14,15,15,16,16,17,17,18,18,19,19,20,20,22,22,24,24,25,25,26,26,27,27,28,28,30,30,31,31,32,32,33,33,34,34,37,37,38,38,39,39,41,41,42,42],"right_children":[2,4,6,8,-1,10,12,14,16,18,20,22,24,-1,26,28,30,32,34,36,38,-1,40,-1,42,44,46,48,50,-1,52,54,56,58,60,-1,-1,62,64,66,-1,68,70,-1,-1,-1,-1,-1,-1,-1,-1,-1,-1,-1,-1,-1,-1,-1,-1,-1,-1,-1,-1,-1,-1,-1,-1,-1,-1,-1,-1],"split_conditions":[2.1E1,2E1,4E1,5E0,5.388715E1,2.7E1,4.6E1,1E0,1.7E1,2.3E1,2.8E1,4.1E1,1E0,-1.5898515E1,3E0,1.1E1,1.8E1,2.2E1,2.5E1,1E0,3.9E1,-1.0749497E1,4.5E1,-3.999619E0,4.7E1,2E0,1E0,8E0,1.3E1,-1.1500149E1,1.9E1,2E0,1E0,2.4E1,2.6E1,1.0974567E1,2.4629463E1,3.2E1,1E0,4.3E1,-1.102227E1,3E0,6E0,1.6690174E1,4.1928562E1,4.6665626E0,1.1694845E1,4.7264466E0,-1.0376593E1,2.0250929E1,-6.0612124E-1,7.4649656E-1,-5.974761E0,-4.7129183E0,-3.0499423E0,-2.4122531E0,6.7118526E-1,-1.5426107E1,-4.193351E0,-1.3276704E1,-1.6883858E1,4.2583346E0,-6.537124E0,1.0721081E1,1.679143E1,-1.2522827E1,-1.492528E1,-1.6049834E0,-2.3610134E0,-1.8680961E-1,2.2117083E0],"split_indices":[2,2,2,2,0,2,2,2,2,2,2,2,0,0,2,2,2,2,2,0,2,0,2,0,2,2,0,2,2,0,2,0,0,2,2,0,0,2,0,2,0,0,0,0,0,0,0,0,0,0,0,0,0,0,0,0,0,0,0,0,0,0,0,0,0,0,0,0,0,0,0],"split_type":[0,0,0,0,0,0,0,0,0,0,0,0,0,0,0,0,0,0,0,0,0,0,0,0,0,0,0,0,0,0,0,0,0,0,0,0,0,0,0,0,0,0,0,0,0,0,0,0,0,0,0,0,0,0,0,0,0,0,0,0,0,0,0,0,0,0,0,0,0,0,0],"sum_hessian":[5.711E3,2.519E3,3.192E3,2.401E3,1.18E2,2.241E3,9.51E2,5.94E2,1.807E3,7.12E2,1.529E3,7.09E2,2.42E2,1.19E2,4.75E2,1.44E3,3.67E2,2.3E2,4.82E2,1.25E2,1.404E3,1.15E2,5.94E2,3.7E1,2.05E2,2.38E2,2.37E2,7.25E2,7.15E2,1.27E2,2.4E2,1.15E2,1.15E2,2.4E2,2.42E2,1.9E1,1.06E2,1.288E3,1.16E2,4.72E2,1.22E2,9.7E1,1.08E2,1.2E2,1.18E2,3.6E1,2.01E2,3.57E2,3.68E2,2.41E2,4.74E2,1.26E2,1.14E2,3.3E1,8.2E1,1.8E1,9.7E1,1.2E2,1.2E2,1.15E2,1.27E2,4.69E2,8.19E2,1.8E1,9.8E1,2.36E2,2.36E2,2.9E1,6.8E1,9E1,1.8E1],"tree_param":{"num_deleted":"0","num_feature":"3","num_nodes":"71","size_leaf_vector":"1"}},{"base_weights":[-4.653445E-2,-4.902622E1,2.4294346E1,3.0937132E1,-6.0754185E1,-1.0473059E1,2.9903486E1,3.173592E1,3.7717195E0,-6.8281265E1,-1.5040192E1,-3.2411247E1,1.0606962E1,8.216605E0,3.7343777E1,2.9177065E1,5.55758E0,-7.2413376E1,-4.747147E1,-6.226433E0,-9.964947E0,-4.6875137E1,-1.846492E1,1.4199975E1,-2.2238305E-1,1.5513578E1,-6.486032E0,4.120774E1,-2.9587085E0,5.533766E0,2.6300962E1,-4.883287E1,-7.625585E1,-7.7013054E0,-3.9430145E1,-1.9955869E0,-2.5995571E1,-6.660188E0,-8.625129E0,-1.5610863E0,-3.2317352E0,7.9195523E0,2.893165E1,2.4027637E-1,-2.993117E-1,2.6613337E1,1.1864694E1,-1.9954811E1,6.8366656E0,3.0632286E1,5.3901485E1,-1.2952631E1,2.266713E0,2.4391923E0,4.676561E0,-4.653819E0,-7.90752E0,-1.2545125E1,-9.659315E0,-4.990573E0,-6.9210343E0,8.42483E-2,-6.9428456E-1,-6.1708894E0,-2.0166447E0,-2.560165E-1,1.6322899E0,5.018475E0,3.5414615E0,4.967557E0,3.064511E0,2.1430464E0,7.460831E-1,-5.9334555E0,-2.330563E-1,1.5927576E0,-1.1172644E0,4.3623896E0,6.1423965E0,1.0093865E1,5.2845917E0,-2.6184433E0,-1.2444232E0],"categories":[],"categories_nodes":[],"categories_segments":[],"categories_sizes":[],"default_left":[0,0,0,0,0,0,0,0,0,0,0,0,0,0,0,0,0,0,0,0,0,0,0,0,0,0,0,0,0,0,0,0,0,0,0,0,0,0,0,0,0,0,0,0,0,0,0,0,0,0,0,0,0,0,0,0,0,0,0,0,0,0,0,0,0,0,0,0,0,0,0,0,0,0,0,0,0,0,0,0,0,0,0],"id":1,"left_children":[1,3,5,7,9,11,13,15,-1,17,19,21,23,25,27,29,-1,31,33,-1,35,37,39,41,43,45,47,49,51,-1,53,55,57,-1,59,61,63,-1,-1,-1,-1,65,67,-1,-1,69,71,73,75,77,79,81,-1,-1,-1,-1,-1,-1,-1,-1,-1,-1,-1,-1,-1,-1,-1,-1,-1,-1,-1,-1,-1,-1,-1,-1,-1,-1,-1,-1,-1,-1,-1],"loss_changes":[6.7478995E6,1.7640195E6,7.3766575E5,4.1046875E2,5.62942E5,2.435964E5,5.2507075E5,1.4629688E3,0E0,1.175485E5,3.0080992E4,5.117775E4,1.0469941E4,8.946881E4,3.7760475E5,1.9265078E3,0E0,1.02468E5,3.7405625E3,0E0,2.4987871E4,1.4424062E3,2.7638516E3,1.8460145E4,2.1579129E2,2.2243703E4,4.9841438E4,2.952925E5,3.8125633E4,0E0,4.183875E3,7.6299375E3,7.2728E4,0E0,1.2684766E3,8.622718E2,1.1473203E4,0E0,0E0,0E0,0E0,3.836497E3,5.971172E2,0E0,0E0,4.6663906E3,6.3476523E3,4.8119266E4,7.2255586E3,2.2520875E4,2.35026E5,2.627875E3,0E0,0E0,0E0,0E0,0E0,0E0,0E0,0E0,0E0,0E0,0E0,0E0,0E0,0E0,0E0,0E0,0E0,0E0,0E0,0E0,0E0,0E0,0E0,0E0,0E0,0E0,0E0,0E0,0E0,0E0,0E0],"parents":[2147483647,0,0,1,1,2,2,3,3,4,4,5,5,6,6,7,7,9,9,10,10,11,11,12,12,13,13,14,14,15,15,17,17,18,18,20,20,21,21,22,22,23,23,24,24,25,25,26,26,27,27,28,28,30,30,31,31,32,32,34,34,35,35,36,36,41,41,42,42,45,45,46,46,47,47,48,48,49,49,50,50,51,51],"right_children":[2,4,6,8,10,12,14,16,-1,18,20,22,24,26,28,30,-1,32,34,-1,36,38,40,42,44,46,48,50,52,-1,54,56,58,-1,60,62,64,-1,-1,-1,-1,66,68,-1,-1,70,72,74,76,78,80,82,-1,-1,-1,-1,-1,-1,-1,-1,-1,-1,-1,-1,-1,-1,-1,-1,-1,-1,-1,-1,-1,-1,-1,-1,-1,-1,-1,-1,-1,-1,-1],"split_conditions":[8E0,1E0,1E0,6E0,7E0,1.6E1,1.2E1,4E0,3.7717195E0,6E0,1E0,1.2E1,2.2E1,5E0,2.3E1,1E0,5.55758E0,1E0,5E0,-6.226433E0,5E0,1.1E1,1.3E1,2E1,2.3E1,9E0,6E0,1.8E1,5E0,5.533766E0,2E0,2E0,5E0,-7.7013054E0,6E0,3E0,6E0,-6.660188E0,-8.625129E0,-1.5610863E0,-3.2317352E0,1.7E1,2.1E1,2.4027637E-1,-2.993117E-1,3E0,4E0,1E1,1.1E1,6E0,2.1E1,3E0,2.266713E0,2.4391923E0,4.676561E0,-4.653819E0,-7.90752E0,-1.2545125E1,-9.659315E0,-4.990573E0,-6.9210343E0,8.42483E-2,-6.9428456E-1,-6.1708894E0,-2.0166447E0,-2.560165E-1,1.6322899E0,5.018475E0,3.5414615E0,4.967557E0,3.064511E0,2.1430464E0,7.460831E-1,-5.9334555E0,-2.330563E-1,1.5927576E0,-1.1172644E0,4.3623896E0,6.1423965E0,1.0093865E1,5.2845917E0,-2.6184433E0,-1.2444232E0],"split_indices":[1,1,0,0,1,1,1,0,0,1,0,1,1,0,1,0,0,0,0,0,0,1,1,1,1,1,0,1,0,0,0,1,0,0,0,0,0,0,0,0,0,1,1,0,0,0,0,1,1,0,1,0,0,0,0,0,0,0,0,0,0,0,0,0,0,0,0,0,0,0,0,0,0,0,0,0,0,0,0,0,0,0,0],"split_type":[0,0,0,0,0,0,0,0,0,0,0,0,0,0,0,0,0,0,0,0,0,0,0,0,0,0,0,0,0,0,0,0,0,0,0,0,0,0,0,0,0,0,0,0,0,0,0,0,0,0,0,0,0,0,0,0,0,0,0,0,0,0,0,0,0,0,0,0,0,0,0,0,0,0,0,0,0,0,0,0,0,0,0],"sum_hessian":[5.658E3,1.878E3,3.78E3,2.4E2,1.638E3,5.25E2,3.255E3,2.09E2,3.1E1,1.406E3,2.32E2,2.57E2,2.68E2,8.32E2,2.423E3,1.4E2,6.9E1,1.171E3,2.35E2,3.7E1,1.95E2,1.25E2,1.32E2,2.01E2,6.7E1,5.56E2,2.76E2,2.211E3,2.12E2,3.7E1,1.03E2,1.66E2,1.005E3,1.67E2,6.8E1,1.31E2,6.4E1,9.8E1,2.7E1,3.4E1,9.8E1,1.42E2,5.9E1,3.3E1,3.4E1,1.36E2,4.2E2,1.37E2,1.39E2,1.208E3,1.003E3,1.36E2,7.6E1,3.2E1,7.1E1,2.5E1,1.41E2,6.83E2,3.22E2,3.5E1,3.3E1,6.6E1,6.5E1,2.9E1,3.5E1,3.2E1,1.1E2,3.2E1,2.7E1,6.9E1,6.7E1,3.19E2,1.01E2,6.7E1,7E1,1.11E2,2.8E1,1.001E3,2.07E2,6.11E2,3.92E2,7.1E1,6.5E1],"tree_param":{"num_deleted":"0","num_feature":"3","num_nodes":"83","size_leaf_vector":"1"}},{"base_weights":[-1.3116911E-1,-4.2316998E1,2.0415274E1,2.3425575E1,-5.160223E1,-8.214934E0,2.5109537E1,1.7030317E1,2.5989056E1,-5.7022373E1,-1.7124271E1,-2.910977E1,7.790315E0,1.1355571E1,3.3430344E1,3.2134252E0,1.7850778E0,2.8714062E1,3.6583729E0,-3.1235184E1,-6.111413E1,-5.747533E0,-1.2965087E1,-5.3123E0,-2.1626205E1,-5.708505E0,1.5182139E1,1.6046684E1,2.1696928E0,3.9626472E1,8.548947E0,3.6558046E0,4.989262E0,-2.5453649E0,-5.136486E0,-6.4796776E1,-4.2761772E1,-1.5147103E1,-3.5437104E-1,-9.676237E-1,-4.6822505E0,-4.7957845E0,-1.0925555E0,8.074492E0,1.8837873E1,2.6890099E1,1.396475E1,-1.1861341E1,1.7084225E1,2.900872E1,5.0325985E1,1.9453716E1,-1.3811861E0,-1.0646186E1,-8.249753E0,-7.8352714E0,-6.1981735E0,-1.5533438E0,-5.2881904E0,-1.0541977E0,-4.4793767E-1,9.5902765E-1,1.4998358E0,4.347051E0,1.4226038E0,4.9652376E0,3.7840269E0,1.3142059E0,3.3864567E0,-4.4926014E0,-6.065255E-1,1.1695516E0,5.3988924E0,4.0324526E0,6.1740355E0,8.457209E0,6.0257993E0,1.673371E0,3.572043E0,-1.3634229E0,1.8315237E0],"categories":[],"categories_nodes":[],"categories_segments":[],"categories_sizes":[],"default_left":[0,0,0,0,0,0,0,0,0,0,0,0,0,0,0,0,0,0,0,0,0,0,0,0,0,0,0,0,0,0,0,0,0,0,0,0,0,0,0,0,0,0,0,0,0,0,0,0,0,0,0,0,0,0,0,0,0,0,0,0,0,0,0,0,0,0,0,0,0,0,0,0,0,0,0,0,0,0,0,0,0],"id":2,"left_children":[1,3,5,7,9,11,13,15,17,19,21,23,25,27,29,-1,-1,31,-1,33,35,-1,37,-1,39,41,43,45,47,49,51,-1,-1,-1,-1,53,55,57,-1,-1,-1,59,-1,61,63,65,67,69,71,73,75,77,79,-1,-1,-1,-1,-1,-1,-1,-1,-1,-1,-1,-1,-1,-1,-1,-1,-1,-1,-1,-1,-1,-1,-1,-1,-1,-1,-1,-1],"loss_changes":[4.924977E6,1.1372288E6,5.1374E5,3.3444453E3,3.03817E5,1.8048295E5,3.7534012E5,1.2375078E3,2.0136719E2,1.467615E5,1.8578879E4,9.261531E3,3.0619627E4,5.3356156E4,3.149355E5,0E0,0E0,4.2989062E2,0E0,6.3619375E3,7.9345E4,0E0,4.307039E3,0E0,1.4223449E4,1.10355225E2,4.99266E3,1.8136234E4,8.809449E4,1.8451125E5,4.4315758E4,0E0,0E0,0E0,0E0,5.0331E4,1.680875E3,1.4665715E4,0E0,0E0,0E0,2.5502917E2,0E0,1.5502148E2,1.1681023E4,7.363203E2,3.0209531E4,2.9984963E4,3.49052E4,2.3228562E4,4.29145E4,6.302422E3,2.1863455E4,0E0,0E0,0E0,0E0,0E0,0E0,0E0,0E0,0E0,0E0,0E0,0E0,0E0,0E0,0E0,0E0,0E0,0E0,0E0,0E0,0E0,0E0,0E0,0E0,0E0,0E0,0E0,0E0],"parents":[2147483647,0,0,1,1,2,2,3,3,4,4,5,5,6,6,7,7,8,8,9,9,10,10,11,11,12,12,13,13,14,14,17,17,19,19,20,20,22,22,24,24,25,25,26,26,27,27,28,28,29,29,30,30,35,35,36,36,37,37,41,41,43,43,44,44,45,45,46,46,47,47,48,48,49,49,50,50,51,51,52,52],"right_children":[2,4,6,8,10,12,14,16,18,20,22,24,26,28,30,-1,-1,32,-1,34,36,-1,38,-1,40,42,44,46,48,50,52,-1,-1,-1,-1,54,56,58,-1,-1,-1,60,-1,62,64,66,68,70,72,74,76,78,80,-1,-1,-1,-1,-1,-1,-1,-1,-1,-1,-1,-1,-1,-1,-1,-1,-1,-1,-1,-1,-1,-1,-1,-1,-1,-1,-1,-1],"split_conditions":[8E0,1E0,1E0,2E0,7E0,1.5E1,1.4E1,1E0,4E0,1E0,1E0,1.2E1,1.8E1,5E0,2.2E1,3.2134252E0,1.7850778E0,3E0,3.6583729E0,2E0,6E0,-5.747533E0,6E0,-5.3123E0,1.3E1,1.7E1,2E1,9E0,6E0,1.8E1,2.3E1,3.6558046E0,4.989262E0,-2.5453649E0,-5.136486E0,5E0,2E0,5E0,-3.5437104E-1,-9.676237E-1,-4.6822505E0,1.6E1,-1.0925555E0,1.9E1,2.2E1,2E0,1.2E1,1E1,1.2E1,6E0,5E0,3E0,5E0,-1.0646186E1,-8.249753E0,-7.8352714E0,-6.1981735E0,-1.5533438E0,-5.2881904E0,-1.0541977E0,-4.4793767E-1,9.5902765E-1,1.4998358E0,4.347051E0,1.4226038E0,4.9652376E0,3.7840269E0,1.3142059E0,3.3864567E0,-4.4926014E0,-6.065255E-1,1.1695516E0,5.3988924E0,4.0324526E0,6.1740355E0,8.457209E0,6.0257993E0,1.673371E0,3.572043E0,-1.3634229E0,1.8315237E0],"split_indices":[1,1,0,0,1,1,1,0,0,0,0,1,1,0,1,0,0,0,0,1,1,0,0,0,1,1,1,1,0,1,1,0,0,0,0,0,0,0,0,0,0,1,0,1,1,0,1,1,1,0,0,0,0,0,0,0,0,0,0,0,0,0,0,0,0,0,0,0,0,0,0,0,0,0,0,0,0,0,0,0,0],"split_type":[0,0,0,0,0,0,0,0,0,0,0,0,0,0,0,0,0,0,0,0,0,0,0,0,0,0,0,0,0,0,0,0,0,0,0,0,0,0,0,0,0,0,0,0,0,0,0,0,0,0,0,0,0,0,0,0,0,0,0,0,0,0,0,0,0,0,0,0,0,0,0,0,0,0,0,0,0,0,0,0,0],"sum_hessian":[5.68E3,1.86E3,3.82E3,2.3E2,1.63E3,5.38E2,3.282E3,6.8E1,1.62E2,1.408E3,2.22E2,2.33E2,3.05E2,1.238E3,2.044E3,3.7E1,3.1E1,6.3E1,9.9E1,1.94E2,1.214E3,3.6E1,1.86E2,1.3E2,1.03E2,1.08E2,1.97E2,8.19E2,4.19E2,1.636E3,4.08E2,3.2E1,3.1E1,2.9E1,1.65E2,1.009E3,2.05E2,1.54E2,3.2E1,3.9E1,6.4E1,6.9E1,3.9E1,6.8E1,1.29E2,1.3E2,6.89E2,2.16E2,2.03E2,8.23E2,8.13E2,1.94E2,2.14E2,6.84E2,3.25E2,3.6E1,1.69E2,1.24E2,3E1,3.1E1,3.8E1,3.6E1,3.2E1,6.3E1,6.6E1,3.1E1,9.9E1,4.19E2,2.7E2,6.6E1,1.5E2,1.35E2,6.8E1,6.75E2,1.48E2,5.49E2,2.64E2,6.3E1,1.31E2,1.37E2,7.7E1],"tree_param":{"num_deleted":"0","num_feature":"3","num_nodes":"81","size_leaf_vector":"1"}},{"base_weights":[1.0405408E0,3.3423656E1,-2.5283396E1,2.0115063E1,4.5255146E1,-1.2364344E1,-5.6225056E1,7.328042E1,2.4310348E0,-5.0193516E1,4.4870486E0,-7.155176E1,-9.187036E0,-1.3385001E1,1.1472864E2,1.7784056E1,-1.5196021E1,-1.0072992E1,-6.876214E1,1.3002585E2,-6.327672E0,-7.3458984E1,-9.304448E0,-3.4680982E0,-6.9278135E0,1.6846419E2,5.9382126E1,-9.385618E0,1.9186606E2,-3.6480436E0,-3.022677E1,-2.0813343E1,8.6007506E-1,-5.3489063E1,-8.433651E1,9.92669E0,2.1813318E1,-1.5173355E1,9.118013E1,-6.7038345E1,-1.2586886E1,-1.2032856E1,-1.6999867E0,1.4359794E1,3.6457832E1,5.2356367E0,9.734799E0,3.6936374E0,-5.2831454E0,2.3549793E1,3.1263596E1,-6.917392E0,1.6367294E0,-9.658454E0,-2.0881274E0,-3.8306522E0,-2.8260944E0,6.0094154E-1,-1.1102161E0,-1.3137098E1,-3.0263774E0,-1.1320325E1,-1.4281504E1,3.5883286E0,-5.627321E0,1.4897919E1,1.1264855E1,-1.0952393E1,-8.800038E0,-1.2473459E0,-2.0975401E0,2.2526938E-1,-1.2657427E0],"categories":[],"categories_nodes":[],"categories_segments":[],"categories_sizes":[],"default_left":[0,0,0,0,0,0,0,0,0,0,0,0,0,0,0,0,0,0,0,0,0,0,0,0,0,0,0,0,0,0,0,0,0,0,0,0,0,0,0,0,0,0,0,0,0,0,0,0,0,0,0,0,0,0,0,0,0,0,0,0,0,0,0,0,0,0,0,0,0,0,0,0,0],"id":3,"left_children":[1,3,5,7,-1,9,11,13,15,17,19,21,23,-1,25,27,29,31,33,35,37,39,-1,-1,41,43,45,47,49,51,53,55,57,59,61,-1,-1,63,65,67,-1,69,71,-1,-1,-1,-1,-1,-1,-1,-1,-1,-1,-1,-1,-1,-1,-1,-1,-1,-1,-1,-1,-1,-1,-1,-1,-1,-1,-1,-1,-1,-1],"loss_changes":[4.823161E6,8.883386E6,1.2468838E6,2.2712912E6,0E0,1.4045809E6,6.618845E5,4.0348768E6,4.911905E5,5.0515088E5,2.0712652E6,9.4625E3,6.791836E3,0E0,1.417552E6,4.58966E6,1.4656039E5,2.53817E4,1.0585975E5,9.275075E4,1.2132285E6,2.833675E4,0E0,0E0,5.2104463E3,1.2517955E6,2.4295562E4,7.135917E5,3.26785E4,2.8772147E5,1.999915E5,6.058711E2,2.7358672E3,2.5858369E5,1.449625E4,0E0,0E0,1.08437E6,5.950125E3,1.127125E4,0E0,5.4362305E2,2.0666194E3,0E0,0E0,0E0,0E0,0E0,0E0,0E0,0E0,0E0,0E0,0E0,0E0,0E0,0E0,0E0,0E0,0E0,0E0,0E0,0E0,0E0,0E0,0E0,0E0,0E0,0E0,0E0,0E0,0E0,0E0],"parents":[2147483647,0,0,1,1,2,2,3,3,5,5,6,6,7,7,8,8,9,9,10,10,11,11,12,12,14,14,15,15,16,16,17,17,18,18,19,19,20,20,21,21,24,24,25,25,26,26,27,27,28,28,29,29,30,30,31,31,32,32,33,33,34,34,37,37,38,38,39,39,41,41,42,42],"right_children":[2,4,6,8,-1,10,12,14,16,18,20,22,24,-1,26,28,30,32,34,36,38,40,-1,-1,42,44,46,48,50,52,54,56,58,60,62,-1,-1,64,66,68,-1,70,72,-1,-1,-1,-1,-1,-1,-1,-1,-1,-1,-1,-1,-1,-1,-1,-1,-1,-1,-1,-1,-1,-1,-1,-1,-1,-1,-1,-1,-1,-1],"split_conditions":[2.1E1,2E1,4E1,5E0,4.5255146E1,2.7E1,4.6E1,1E0,1.3E1,2.3E1,2.8E1,4.5E1,1E0,-1.3385001E1,3E0,1.2E1,1.7E1,2.2E1,2.5E1,1E0,3.9E1,4.3E1,-9.304448E0,-3.4680982E0,4.7E1,2E0,1E0,8E0,2E0,1.4E1,1.8E1,2E0,5E0,2.4E1,2.6E1,9.92669E0,2.1813318E1,3.2E1,5E0,4.2E1,-1.2586886E1,3E0,5E0,1.4359794E1,3.6457832E1,5.2356367E0,9.734799E0,3.6936374E0,-5.2831454E0,2.3549793E1,3.1263596E1,-6.917392E0,1.6367294E0,-9.658454E0,-2.0881274E0,-3.8306522E0,-2.8260944E0,6.0094154E-1,-1.1102161E0,-1.3137098E1,-3.0263774E0,-1.1320325E1,-1.4281504E1,3.5883286E0,-5.627321E0,1.4897919E1,1.1264855E1,-1.0952393E1,-8.800038E0,-1.2473459E0,-2.0975401E0,2.2526938E-1,-1.2657427E0],"split_indices":[2,2,2,2,0,2,2,2,2,2,2,2,0,0,2,2,2,2,2,0,2,2,0,0,2,2,0,2,0,2,2,0,0,2,2,0,0,2,0,2,0,0,0,0,0,0,0,0,0,0,0,0,0,0,0,0,0,0,0,0,0,0,0,0,0,0,0,0,0,0,0,0,0],"split_type":[0,0,0,0,0,0,0,0,0,0,0,0,0,0,0,0,0,0,0,0,0,0,0,0,0,0,0,0,0,0,0,0,0,0,0,0,0,0,0,0,0,0,0,0,0,0,0,0,0,0,0,0,0,0,0,0,0,0,0,0,0,0,0,0,0,0,0,0,0,0,0,0,0],"sum_hessian":[5.656E3,2.536E3,3.12E3,2.415E3,1.21E2,2.202E3,9.18E2,6.02E2,1.813E3,6.78E2,1.524E3,6.92E2,2.26E2,1.23E2,4.79E2,9.69E2,8.44E2,2.15E2,4.63E2,1.2E2,1.404E3,5.81E2,1.11E2,3.1E1,1.95E2,2.42E2,2.37E2,8.39E2,1.3E2,4.78E2,3.66E2,1.08E2,1.07E2,2.36E2,2.27E2,2.1E1,9.9E1,1.288E3,1.16E2,3.45E2,2.36E2,9.8E1,9.7E1,1.19E2,1.23E2,3.7E1,2E2,3.6E2,4.79E2,3.7E1,9.3E1,1.22E2,3.56E2,1.21E2,2.45E2,3.4E1,7.4E1,7.8E1,2.9E1,1.19E2,1.17E2,1.13E2,1.14E2,4.63E2,8.25E2,8.1E1,3.5E1,2.24E2,1.21E2,3.2E1,6.6E1,6.6E1,3.1E1],"tree_param":{"num_deleted":"0","num_feature":"3","num_nodes":"73","size_leaf_vector":"1"}},{"base_weights":[1.19136244E-1,-3.598881E1,1.8022E1,1.9055355E1,-4.401582E1,5.1994667E1,-8.537928E0,4.4221004E1,-2.9686323E1,-4.89827E1,-1.3492691E1,3.812345E1,3.0218912E2,4.9093485E0,-3.972158E1,1.2346442E2,3.201863E1,-3.5221313E1,3.010428E0,-3.9275974E1,-5.7863552E1,9.786359E0,-3.233616E1,9.990969E1,1.7357832E1,2.4900126E1,3.4330026E2,-3.6145065E1,2.3142262E1,-5.719298E1,1.0433149E1,2.3986883E0,3.355254E1,2.1214386E1,1.2334753E1,-1.3118393E1,-9.378702E0,-4.5340073E1,4.5065923E0,-5.428222E1,-6.480646E1,7.147791E-1,1.1276321E1,-5.417196E1,-2.6829197E1,-1.1635273E1,1.4488756E2,-2.7380041E1,2.4877476E1,4.0973637E1,3.7622565E2,4.5994563E0,-5.574852E1,1.5208284E2,1.1063634E1,-6.7108727E0,-5.964374E1,1.1655599E0,2.3078089E1,4.9965434E0,-6.016502E0,-8.769684E0,2.0843346E0,-7.896557E0,-5.014947E0,1.464916E1,-6.9406424E0,-8.812204E0,2.7154174E-1,-1.0208203E1,-8.59904E0,-1.9490275E0,2.7667701E0,-5.870252E0,-1.0019478E1,-2.4636664E0,-6.8986273E0,3.1345526E1,1.2597563E1,-5.365225E0,-2.4091597E0,2.8463291E1,1.7804072E0,6.300091E1,3.9144882E1,-1.2511252E0,2.5450723E0,-5.812295E0,-1.1226109E1,1.0142954E1,2.7592003E1,4.900946E-1,1.5287983E1,-9.631997E0,-6.788959E0,-1.5149823E0,1.5287553E0,4.439169E0,7.7081317E-1],"categories":[],"categories_nodes":[],"categories_segments":[],"categories_sizes":[],"default_left":[0,0,0,0,0,0,0,0,0,0,0,0,0,0,0,0,0,0,0,0,0,0,0,0,0,0,0,0,0,0,0,0,0,0,0,0,0,0,0,0,0,0,0,0,0,0,0,0,0,0,0,0,0,0,0,0,0,0,0,0,0,0,0,0,0,0,0,0,0,0,0,0,0,0,0,0,0,0,0,0,0,0,0,0,0,0,0,0,0,0,0,0,0,0,0,0,0,0,0],"id":4,"left_children":[1,3,5,7,9,11,13,15,17,19,21,23,25,27,29,31,33,35,-1,37,39,41,43,45,47,-1,49,51,53,55,57,-1,-1,59,-1,61,-1,63,65,67,69,71,-1,73,75,-1,77,79,81,-1,83,85,87,89,91,-1,93,95,97,-1,-1,-1,-1,-1,-1,-1,-1,-1,-1,-1,-1,-1,-1,-1,-1,-1,-1,-1,-1,-1,-1,-1,-1,-1,-1,-1,-1,-1,-1,-1,-1,-1,-1,-1,-1,-1,-1,-1,-1],"loss_changes":[3.6976138E6,8.385675E5,3.450883E6,2.981538E5,2.5024475E5,5.8119815E6,9.0050775E5,1.5076012E5,2.3400484E4,1.2039575E5,1.0252378E5,2.039566E6,4.466035E5,1.1243974E6,5.6754556E5,2.1490334E5,7.217606E4,4.2737812E4,0E0,1.81542E5,1.4907E4,6.104523E4,1.4058719E4,3.1809725E6,4.0168538E5,0E0,6.365E4,3.692713E5,1.6180396E6,1.289775E4,1.9660703E4,0E0,0E0,8.252322E4,0E0,5.070707E4,0E0,4.6384E4,3.889102E5,9.702825E4,6.426875E2,2.2097424E4,0E0,1.9883984E3,1.9896875E4,0E0,1.187696E6,1.497818E4,2.1783282E6,0E0,8.77445E4,2.3501826E4,9.5459375E4,2.0746575E5,6.660872E5,0E0,1.8518375E4,9.732939E3,7.5648164E3,0E0,0E0,0E0,0E0,0E0,0E0,0E0,0E0,0E0,0E0,0E0,0E0,0E0,0E0,0E0,0E0,0E0,0E0,0E0,0E0,0E0,0E0,0E0,0E0,0E0,0E0,0E0,0E0,0E0,0E0,0E0,0E0,0E0,0E0,0E0,0E0,0E0,0E0,0E0,0E0],"parents":[2147483647,0,0,1,1,2,2,3,3,4,4,5,5,6,6,7,7,8,8,9,9,10,10,11,11,12,12,13,13,14,14,15,15,16,16,17,17,19,19,20,20,21,21,22,22,23,23,24,24,26,26,27,27,28,28,29,29,30,30,33,33,35,35,37,37,38,38,39,39,40,40,41,41,43,43,44,44,46,46,47,47,48,48,50,50,51,51,52,52,53,53,54,54,56,56,57,57,58,58],"right_children":[2,4,6,8,10,12,14,16,18,20,22,24,26,28,30,32,34,36,-1,38,40,42,44,46,48,-1,50,52,54,56,58,-1,-1,60,-1,62,-1,64,66,68,70,72,-1,74,76,-1,78,80,82,-1,84,86,88,90,92,-1,94,96,98,-1,-1,-1,-1,-1,-1,-1,-1,-1,-1,-1,-1,-1,-1,-1,-1,-1,-1,-1,-1,-1,-1,-1,-1,-1,-1,-1,-1,-1,-1,-1,-1,-1,-1,-1,-1,-1,-1,-1,-1],"split_conditions":[8E0,1E0,2.1E1,3.2E1,7E0,2E1,4E1,4E0,4.6E1,2.3E1,2.3E1,5E0,1.2E1,2.7E1,4.6E1,2E0,2.7E1,4E1,3.010428E0,2E1,4E1,2E1,2.7E1,1E0,7E0,2.4900126E1,1.6E1,2.3E1,2.8E1,4.1E1,1.7E1,2.3986883E0,3.355254E1,2.3E1,1.2334753E1,3.5E1,-9.378702E0,5E0,2.1E1,3.9E1,4.6E1,1.1E1,1.1276321E1,2.5E1,4E1,-1.1635273E1,3E0,1.7E1,8E0,4.0973637E1,2.2E1,2.2E1,2.5E1,1.2E1,3.9E1,-6.7108727E0,4.5E1,4.7E1,2.2E1,4.9965434E0,-6.016502E0,-8.769684E0,2.0843346E0,-7.896557E0,-5.014947E0,1.464916E1,-6.9406424E0,-8.812204E0,2.7154174E-1,-1.0208203E1,-8.59904E0,-1.9490275E0,2.7667701E0,-5.870252E0,-1.0019478E1,-2.4636664E0,-6.8986273E0,3.1345526E1,1.2597563E1,-5.365225E0,-2.4091597E0,2.8463291E1,1.7804072E0,6.300091E1,3.9144882E1,-1.2511252E0,2.5450723E0,-5.812295E0,-1.1226109E1,1.0142954E1,2.7592003E1,4.900946E-1,1.5287983E1,-9.631997E0,-6.788959E0,-1.5149823E0,1.5287553E0,4.439169E0,7.7081317E-1],"split_indices":[1,1,2,2,1,2,2,2,2,2,2,2,1,2,2,2,2,2,0,2,2,2,2,2,2,0,1,2,2,2,1,0,0,2,0,2,0,1,2,2,2,2,0,2,2,0,2,1,2,0,1,2,2,1,2,0,2,2,1,0,0,0,0,0,0,0,0,0,0,0,0,0,0,0,0,0,0,0,0,0,0,0,0,0,0,0,0,0,0,0,0,0,0,0,0,0,0,0,0],"split_type":[0,0,0,0,0,0,0,0,0,0,0,0,0,0,0,0,0,0,0,0,0,0,0,0,0,0,0,0,0,0,0,0,0,0,0,0,0,0,0,0,0,0,0,0,0,0,0,0,0,0,0,0,0,0,0,0,0,0,0,0,0,0,0,0,0,0,0,0,0,0,0,0,0,0,0,0,0,0,0,0,0,0,0,0,0,0,0,0,0,0,0,0,0,0,0,0,0,0,0],"sum_hessian":[5.718E3,1.895E3,3.823E3,2.41E2,1.654E3,1.677E3,2.146E3,1.59E2,8.2E1,1.422E3,2.32E2,1.59E3,8.7E1,1.5E3,6.46E2,2E1,1.39E2,7.4E1,8E0,6.82E2,7.4E2,1.04E2,1.28E2,3.99E2,1.191E3,2.1E1,6.6E1,4.61E2,1.039E3,4.79E2,1.67E2,1E1,1E1,1.15E2,2.4E1,4.1E1,3.3E1,5.99E2,8.3E1,4.94E2,2.46E2,9.2E1,1.2E1,2.4E1,1.04E2,8.1E1,3.18E2,1.71E2,1.02E3,2.3E1,4.3E1,1.5E2,3.11E2,8.8E1,9.51E2,7.8E1,4.01E2,9.7E1,7E1,9.7E1,1.8E1,1.5E1,2.6E1,3.93E2,2.06E2,2.9E1,5.4E1,4.65E2,2.9E1,1.91E2,5.5E1,5.2E1,4E1,1.2E1,1.2E1,6.7E1,3.7E1,1.6E2,1.58E2,1.01E2,7E1,7.6E1,9.44E2,3.1E1,1.2E1,7.3E1,7.7E1,1.58E2,1.53E2,2.3E1,6.5E1,8.75E2,7.6E1,3.23E2,7.8E1,4.3E1,5.4E1,5.2E1,1.8E1],"tree_param":{"num_deleted":"0","num_feature":"3","num_nodes":"99","size_leaf_vector":"1"}},{"base_weights":[2.3616105E-1,-2.9283451E1,1.5038754E1,2.0130482E1,-3.6371685E1,-9.736171E0,1.9061966E1,1.8227348E1,3.8207216E0,-4.3236893E1,-1.922597E1,-2.2916653E1,2.7557712E0,3.1614373E0,2.4439173E1,3.3734841E0,1.6995913E1,-2.0713076E1,-4.703707E1,-2.8023972E1,-9.814181E0,-4.7594147E0,-1.5484274E1,-6.0687037E0,5.887486E0,7.055673E0,-4.321712E0,2.762244E1,-1.0154562E1,1.6492021E0,1.86863E1,-1.4465063E0,-2.2908699E1,-5.2020916E1,-3.6596027E1,-2.9417458E0,-2.9240341E1,-3.7601695E0,-7.1416683E0,-1.626983E0,-2.605145E0,-6.4408404E-1,-1.2048786E0,8.977133E0,-1.3896738E0,1.1251699E1,2.9557061E0,-1.2139289E1,3.5262988E0,1.9399874E1,3.22777E1,-1.3109173E1,7.897603E-1,3.360738E0,2.5874977E0,-4.323651E0,-2.6282141E0,-6.5847707E0,-8.269838E0,-3.4445071E0,-7.5858054E0,-4.8569074E0,-3.6905336E0,-3.0153427E-1,-2.625039E0,1.5810386E0,5.1928383E-1,1.4558227E0,2.5069084E0,1.1065506E0,-2.3232609E-1,-3.6759474E0,2.4594938E-2,1.2502364E0,2.74917E-1,2.3609564E0,3.5467987E0,5.307388E0,2.505357E0,-2.13629E0,-1.4389491E0],"categories":[],"categories_nodes":[],"categories_segments":[],"categories_sizes":[],"default_left":[0,0,0,0,0,0,0,0,0,0,0,0,0,0,0,0,0,0,0,0,0,0,0,0,0,0,0,0,0,0,0,0,0,0,0,0,0,0,0,0,0,0,0,0,0,0,0,0,0,0,0,0,0,0,0,0,0,0,0,0,0,0,0,0,0,0,0,0,0,0,0,0,0,0,0,0,0,0,0,0,0],"id":5,"left_children":[1,3,5,7,9,11,13,15,-1,17,19,21,23,25,27,-1,29,31,33,35,37,-1,39,41,43,45,47,49,51,-1,53,-1,55,57,59,-1,61,-1,63,-1,-1,-1,-1,65,-1,67,69,71,73,75,77,79,-1,-1,-1,-1,-1,-1,-1,-1,-1,-1,-1,-1,-1,-1,-1,-1,-1,-1,-1,-1,-1,-1,-1,-1,-1,-1,-1,-1,-1],"loss_changes":[2.4859078E6,6.662215E5,3.778532E5,1.7808516E3,1.9480075E5,8.732756E4,2.7865412E5,4.671914E2,0E0,1.00541E5,3.9222906E4,1.5407969E4,7.580286E3,2.4071938E4,2.6853562E5,0E0,1.2403672E3,4.048164E3,5.086125E4,2.0504688E3,9.024082E3,0E0,8.786172E2,2.099646E2,9.442496E3,9.308283E3,1.7405543E4,8.4772375E4,9.399949E3,0E0,2.4301953E2,0E0,3.957586E3,1.0964875E4,5.9816438E4,0E0,2.0390938E3,0E0,1.0262425E4,0E0,0E0,0E0,0E0,1.2646465E3,0E0,2.2147383E3,5.3254893E3,2.0896053E4,1.1285319E3,1.186425E4,5.6245875E4,4.3807812E2,0E0,0E0,0E0,0E0,0E0,0E0,0E0,0E0,0E0,0E0,0E0,0E0,0E0,0E0,0E0,0E0,0E0,0E0,0E0,0E0,0E0,0E0,0E0,0E0,0E0,0E0,0E0,0E0,0E0],"parents":[2147483647,0,0,1,1,2,2,3,3,4,4,5,5,6,6,7,7,9,9,10,10,11,11,12,12,13,13,14,14,16,16,17,17,18,18,19,19,20,20,22,22,23,23,24,24,25,25,26,26,27,27,28,28,30,30,32,32,33,33,34,34,36,36,38,38,43,43,45,45,46,46,47,47,48,48,49,49,50,50,51,51],"right_children":[2,4,6,8,10,12,14,16,-1,18,20,22,24,26,28,-1,30,32,34,36,38,-1,40,42,44,46,48,50,52,-1,54,-1,56,58,60,-1,62,-1,64,-1,-1,-1,-1,66,-1,68,70,72,74,76,78,80,-1,-1,-1,-1,-1,-1,-1,-1,-1,-1,-1,-1,-1,-1,-1,-1,-1,-1,-1,-1,-1,-1,-1,-1,-1,-1,-1,-1,-1],"split_conditions":[8E0,1E0,1E0,5E0,6E0,1.6E1,1.2E1,1E0,3.8207216E0,1E0,7E0,1.2E1,1.8E1,5E0,2.3E1,3.3734841E0,2E0,2E0,5E0,1E0,1E0,-4.7594147E0,1.3E1,1.7E1,2.3E1,1E1,6E0,1.6E1,6E0,1.6492021E0,3E0,-1.4465063E0,4E0,2E0,6E0,-2.9417458E0,5E0,-3.7601695E0,5E0,-1.626983E0,-2.605145E0,-6.4408404E-1,-1.2048786E0,2.2E1,-1.3896738E0,4E0,3E0,1E1,9E0,1.4E1,2.2E1,5E0,7.897603E-1,3.360738E0,2.5874977E0,-4.323651E0,-2.6282141E0,-6.5847707E0,-8.269838E0,-3.4445071E0,-7.5858054E0,-4.8569074E0,-3.6905336E0,-3.0153427E-1,-2.625039E0,1.5810386E0,5.1928383E-1,1.4558227E0,2.5069084E0,1.1065506E0,-2.3232609E-1,-3.6759474E0,2.4594938E-2,1.2502364E0,2.74917E-1,2.3609564E0,3.5467987E0,5.307388E0,2.505357E0,-2.13629E0,-1.4389491E0],"split_indices":[1,1,0,0,1,1,1,0,0,0,1,1,1,0,1,0,0,1,0,0,0,0,1,1,1,1,0,1,0,0,0,0,1,1,0,0,0,0,0,0,0,0,0,1,0,0,0,1,1,1,1,0,0,0,0,0,0,0,0,0,0,0,0,0,0,0,0,0,0,0,0,0,0,0,0,0,0,0,0,0,0],"split_type":[0,0,0,0,0,0,0,0,0,0,0,0,0,0,0,0,0,0,0,0,0,0,0,0,0,0,0,0,0,0,0,0,0,0,0,0,0,0,0,0,0,0,0,0,0,0,0,0,0,0,0,0,0,0,0,0,0,0,0,0,0,0,0,0,0,0,0,0,0,0,0,0,0,0,0,0,0,0,0,0,0],"sum_hessian":[5.687E3,1.899E3,3.788E3,2.38E2,1.661E3,5.29E2,3.259E3,1.75E2,6.3E1,1.185E3,4.76E2,2.57E2,2.72E2,8.24E2,2.435E3,3.8E1,1.37E2,1.72E2,1.013E3,2.45E2,2.31E2,1.2E2,1.37E2,7.1E1,2.01E2,5.42E2,2.82E2,2.23E3,2.05E2,3.1E1,1.06E2,2.9E1,1.43E2,6.83E2,3.3E2,3.2E1,2.13E2,3.4E1,1.97E2,3.6E1,1.01E2,3.7E1,3.4E1,1.67E2,3.4E1,2.67E2,2.75E2,1.41E2,1.41E2,8.08E2,1.422E3,1.72E2,3.3E1,3.2E1,7.4E1,7.1E1,7.2E1,1.4E2,5.43E2,1.61E2,1.69E2,1.37E2,7.6E1,1.31E2,6.6E1,1.33E2,3.4E1,2.03E2,6.4E1,1.4E2,1.35E2,7.1E1,7E1,3.7E1,1.04E2,4.03E2,4.05E2,1.226E3,1.96E2,1.36E2,3.6E1],"tree_param":{"num_deleted":"0","num_feature":"3","num_nodes":"81","size_leaf_vector":"1"}},{"base_weights":[3.7455863E-1,2.4188787E1,-1.8467257E1,1.4518492E1,2.1885416E2,-9.252942E0,-4.0086906E1,-1.3985631E1,3.4812992E1,2.2637753E1,2.9286456E2,-3.6573914E1,3.1328974E0,-5.1146027E1,-4.6380534E0,2.9945898E1,-1.9020187E1,9.541813E1,1.47699175E1,3.693995E1,3.2238193E2,-8.646459E0,-4.9809303E1,3.5003044E1,-1.6185617E1,-4.192283E1,-5.2872784E1,-3.2611877E1,5.837941E0,1.0790105E2,1.1028649E1,-3.5614124E1,1.3679646E0,-1.028139E1,1.3520218E2,2.3393276E1,-2.105752E1,5.4757103E1,3.0849848E1,-2.8555845E1,3.426667E-1,-4.286512E1,-6.916422E1,1.4686544E1,1.1792236E2,-2.8289362E1,6.688747E1,-6.678688E0,-5.058055E0,-5.5058815E1,-4.346392E1,2.9559927E0,-4.0673298E1,-2.0947874E0,1.6747038E1,3.1096864E0,2.709623E1,3.5776181E0,-7.0648694E-1,-3.7063537E0,-5.9053464E0,-9.172954E0,6.967327E-1,2.9891981E1,1.1531765E1,-8.746148E-1,8.118665E0,-8.4849415E0,-2.9341635E-1,7.206679E-1,-5.1162834E0,-1.490324E0,1.7381337E0,-1.0105648E1,-4.7263355E0,-8.632704E0,-1.1213591E1,9.203098E0,-4.974855E0,5.1002276E-1,2.6377346E1,-8.440512E0,-1.2524225E0,7.257769E0,1.792298E1,-7.5432277E0,-9.208067E0,-7.014646E0,-4.9816074E0,-4.8431087E0,-7.588382E0,-1.2800018E0,4.690288E-1,1.1135314E0,3.8842247E0],"categories":[],"categories_nodes":[],"categories_segments":[],"categories_sizes":[],"default_left":[0,0,0,0,0,0,0,0,0,0,0,0,0,0,0,0,0,0,0,0,0,0,0,0,0,0,0,0,0,0,0,0,0,0,0,0,0,0,0,0,0,0,0,0,0,0,0,0,0,0,0,0,0,0,0,0,0,0,0,0,0,0,0,0,0,0,0,0,0,0,0,0,0,0,0,0,0,0,0,0,0,0,0,0,0,0,0,0,0,0,0,0,0,0,0],"id":6,"left_children":[1,3,5,7,9,11,13,15,17,-1,19,21,23,25,27,29,31,33,35,-1,37,39,41,43,45,47,49,51,53,55,57,59,61,-1,63,65,67,-1,-1,69,71,73,75,77,79,81,83,-1,-1,85,87,-1,89,91,93,-1,-1,-1,-1,-1,-1,-1,-1,-1,-1,-1,-1,-1,-1,-1,-1,-1,-1,-1,-1,-1,-1,-1,-1,-1,-1,-1,-1,-1,-1,-1,-1,-1,-1,-1,-1,-1,-1,-1,-1],"loss_changes":[2.555812E6,4.733122E6,6.3311775E5,1.3876745E6,5.76877E5,7.5506975E5,3.7219425E5,2.2130294E5,1.7004039E6,0E0,7.1875E3,2.5683225E5,9.46257E5,9.313875E3,6.671356E4,1.5070378E5,3.0318312E5,2.2634065E6,3.2612894E5,0E0,7.25475E4,4.027758E4,6.0474E4,9.753536E5,9.641512E5,4.9153125E2,1.007125E4,2.6774305E4,1.4400537E4,1.18456E5,1.6456273E4,1.6401312E4,7.959501E4,0E0,9.99378E5,7.389608E5,1.354984E5,0E0,0E0,1.1778145E4,1.7549799E4,9.5187E4,2.5698125E3,1.0104224E6,7.180094E5,4.5356675E5,1.1362156E5,0E0,0E0,1.1538875E4,1.7450625E3,0E0,2.793289E3,3.1837026E3,5.579451E3,0E0,0E0,0E0,0E0,0E0,0E0,0E0,0E0,0E0,0E0,0E0,0E0,0E0,0E0,0E0,0E0,0E0,0E0,0E0,0E0,0E0,0E0,0E0,0E0,0E0,0E0,0E0,0E0,0E0,0E0,0E0,0E0,0E0,0E0,0E0,0E0,0E0,0E0,0E0,0E0],"parents":[2147483647,0,0,1,1,2,2,3,3,4,4,5,5,6,6,7,7,8,8,10,10,11,11,12,12,13,13,14,14,15,15,16,16,17,17,18,18,20,20,21,21,22,22,23,23,24,24,25,25,26,26,27,27,28,28,29,29,30,30,31,31,32,32,34,34,35,35,36,36,39,39,40,40,41,41,42,42,43,43,44,44,45,45,46,46,49,49,50,50,52,52,53,53,54,54],"right_children":[2,4,6,8,10,12,14,16,18,-1,20,22,24,26,28,30,32,34,36,-1,38,40,42,44,46,48,50,52,54,56,58,60,62,-1,64,66,68,-1,-1,70,72,74,76,78,80,82,84,-1,-1,86,88,-1,90,92,94,-1,-1,-1,-1,-1,-1,-1,-1,-1,-1,-1,-1,-1,-1,-1,-1,-1,-1,-1,-1,-1,-1,-1,-1,-1,-1,-1,-1,-1,-1,-1,-1,-1,-1,-1,-1,-1,-1,-1,-1],"split_conditions":[2.1E1,2E1,4E1,1E1,1.2E1,2.7E1,4.6E1,1E0,5E0,2.2637753E1,1.7E1,2.3E1,3.2E1,4.1E1,7E0,4E0,6E0,1E0,1.7E1,3.693995E1,2.2E1,7E0,2.6E1,3.1E1,3.9E1,1.9E1,4.5E1,1E0,1.7E1,2E0,1.3E1,4E0,1E0,-1.028139E1,3E0,1.1E1,1.8E1,5.4757103E1,3.0849848E1,1E0,2.2E1,2.4E1,7E0,2.9E1,9E0,3.5E1,1.7E1,-6.678688E0,-5.058055E0,4.3E1,1.9E1,2.9559927E0,4.7E1,4.7E1,4.7E1,3.1096864E0,2.709623E1,3.5776181E0,-7.0648694E-1,-3.7063537E0,-5.9053464E0,-9.172954E0,6.967327E-1,2.9891981E1,1.1531765E1,-8.746148E-1,8.118665E0,-8.4849415E0,-2.9341635E-1,7.206679E-1,-5.1162834E0,-1.490324E0,1.7381337E0,-1.0105648E1,-4.7263355E0,-8.632704E0,-1.1213591E1,9.203098E0,-4.974855E0,5.1002276E-1,2.6377346E1,-8.440512E0,-1.2524225E0,7.257769E0,1.792298E1,-7.5432277E0,-9.208067E0,-7.014646E0,-4.9816074E0,-4.8431087E0,-7.588382E0,-1.2800018E0,4.690288E-1,1.1135314E0,3.8842247E0],"split_indices":[2,2,2,1,1,2,2,1,2,0,1,2,2,2,1,2,1,2,2,0,1,1,2,2,2,1,2,1,1,2,2,2,2,0,2,2,2,0,0,1,2,2,1,2,1,2,1,0,0,2,1,0,2,2,2,0,0,0,0,0,0,0,0,0,0,0,0,0,0,0,0,0,0,0,0,0,0,0,0,0,0,0,0,0,0,0,0,0,0,0,0,0,0,0,0],"split_type":[0,0,0,0,0,0,0,0,0,0,0,0,0,0,0,0,0,0,0,0,0,0,0,0,0,0,0,0,0,0,0,0,0,0,0,0,0,0,0,0,0,0,0,0,0,0,0,0,0,0,0,0,0,0,0,0,0,0,0,0,0,0,0,0,0,0,0,0,0,0,0,0,0,0,0,0,0,0,0,0,0,0,0,0,0,0,0,0,0,0,0,0,0,0,0],"sum_hessian":[5.694E3,2.515E3,3.179E3,2.397E3,1.18E2,2.23E3,9.49E2,9.97E2,1.4E3,6.2E1,5.6E1,6.95E2,1.535E3,7.23E2,2.26E2,1.02E2,8.95E2,3.47E2,1.053E3,2.4E1,3.2E1,2.24E2,4.71E2,5.79E2,9.56E2,1.18E2,6.05E2,6.1E1,1.65E2,1.9E1,8.3E1,4.93E2,4.02E2,6.8E1,2.79E2,8.49E2,2.04E2,2.3E1,9E0,6.9E1,1.55E2,3.49E2,1.22E2,4.66E2,1.13E2,8.35E2,1.21E2,9.4E1,2.4E1,4.87E2,1.18E2,8E0,5.3E1,9.6E1,6.9E1,9E0,1E1,4.6E1,3.7E1,1.08E2,3.85E2,1.9E1,3.83E2,1.37E2,1.42E2,4.3E2,4.19E2,7.2E1,1.32E2,9E0,6E1,8.1E1,7.4E1,1.16E2,2.33E2,3.5E1,8.7E1,2.37E2,2.29E2,3.7E1,7.6E1,3.55E2,4.8E2,8.9E1,3.2E1,2.42E2,2.45E2,9.3E1,2.5E1,2.9E1,2.4E1,4.3E1,5.3E1,3.4E1,3.5E1],"tree_param":{"num_deleted":"0","num_feature":"3","num_nodes":"95","size_leaf_vector":"1"}},{"base_weights":[4.9258697E-1,-2.2869322E1,1.2093447E1,1.2490126E1,-2.7983423E1,-9.362714E0,1.5591316E1,1.101257E1,3.1706471E0,-3.1268019E1,-7.6996937E0,-2.384189E1,-5.949155E-1,3.6039276E0,1.9498043E1,1.2196153E1,6.824063E-1,-1.3303167E1,-3.4138565E1,-1.969029E0,-2.1697603E1,-2.7736042E1,-1.6321102E1,-7.179494E0,3.6040556E0,7.5190125E0,-3.8717718E0,2.2714201E1,3.0991085E0,7.089563E0,1.5357019E1,-1.1307574E1,-3.544652E0,-3.7531666E1,-2.7098001E1,-3.0398698E0,3.1978624E0,-4.9175143E0,-1.8727252E0,-4.738981E0,-3.6240997E0,-2.0071754E0,-2.9024756E0,-6.299612E-1,-7.9760695E0,5.848179E0,-9.6901906E-1,1.4238229E1,5.3332677E0,-1.1719748E1,3.781026E0,1.5795139E1,3.283772E1,9.572636E0,-2.9576082E0,1.2390937E0,8.7649006E-1,2.9447546E0,2.0039184E0,-4.249559E-1,-1.9853425E0,-4.070574E0,-6.2963815E0,-4.4887977E0,-3.3744178E0,9.4167525E-1,5.366178E-2,-1.3827837E0,-9.0022063E-1,1.2373087E-1,1.5019845E0,2.5393043E0,1.746299E0,1.1328182E0,6.352343E-1,-2.8392017E0,-7.404523E-1,8.008659E-1,-2.1186282E-1,2.1391654E0,3.734434E0,5.718203E0,2.961439E0,1.5716981E0,9.203447E-1,-1.2129145E0,9.363001E-1],"categories":[],"categories_nodes":[],"categories_segments":[],"categories_sizes":[],"default_left":[0,0,0,0,0,0,0,0,0,0,0,0,0,0,0,0,0,0,0,0,0,0,0,0,0,0,0,0,0,0,0,0,0,0,0,0,0,0,0,0,0,0,0,0,0,0,0,0,0,0,0,0,0,0,0,0,0,0,0,0,0,0,0,0,0,0,0,0,0,0,0,0,0,0,0,0,0,0,0,0,0,0,0,0,0,0,0],"id":7,"left_children":[1,3,5,7,9,11,13,15,-1,17,19,21,23,25,27,29,-1,31,33,35,37,39,41,43,45,47,49,51,53,55,57,59,-1,61,63,-1,65,-1,-1,-1,-1,-1,-1,-1,67,69,-1,71,73,75,77,79,81,83,85,-1,-1,-1,-1,-1,-1,-1,-1,-1,-1,-1,-1,-1,-1,-1,-1,-1,-1,-1,-1,-1,-1,-1,-1,-1,-1,-1,-1,-1,-1,-1,-1],"loss_changes":[1.5404732E6,3.413982E5,2.8518906E5,2.7011836E3,1.09555375E5,6.7650445E4,1.5288119E5,1.5319102E3,0E0,7.2670625E4,1.8487477E4,5.4340234E3,9.232811E3,2.3560582E4,1.29832125E5,2.6835625E3,0E0,3.643539E3,2.8175625E4,1.5376219E4,6.257828E3,9.9803125E2,3.5750195E2,2.828296E2,4.5955605E3,7.678533E3,1.6680648E4,1.4370438E5,1.5907681E4,4.7772705E1,6.752637E2,2.3809434E3,0E0,3.2315375E4,4E3,0E0,1.0904293E3,0E0,0E0,0E0,0E0,0E0,0E0,0E0,1.7703613E2,3.356025E3,0E0,6.7650586E2,9.4770703E2,6.3943223E3,1.0786278E3,1.8498688E4,5.1410062E4,4.4537305E2,9.589425E3,0E0,0E0,0E0,0E0,0E0,0E0,0E0,0E0,0E0,0E0,0E0,0E0,0E0,0E0,0E0,0E0,0E0,0E0,0E0,0E0,0E0,0E0,0E0,0E0,0E0,0E0,0E0,0E0,0E0,0E0,0E0,0E0],"parents":[2147483647,0,0,1,1,2,2,3,3,4,4,5,5,6,6,7,7,9,9,10,10,11,11,12,12,13,13,14,14,15,15,17,17,18,18,19,19,20,20,21,21,22,22,23,23,24,24,25,25,26,26,27,27,28,28,29,29,30,30,31,31,33,33,34,34,36,36,44,44,45,45,47,47,48,48,49,49,50,50,51,51,52,52,53,53,54,54],"right_children":[2,4,6,8,10,12,14,16,-1,18,20,22,24,26,28,30,-1,32,34,36,38,40,42,44,46,48,50,52,54,56,58,60,-1,62,64,-1,66,-1,-1,-1,-1,-1,-1,-1,68,70,-1,72,74,76,78,80,82,84,86,-1,-1,-1,-1,-1,-1,-1,-1,-1,-1,-1,-1,-1,-1,-1,-1,-1,-1,-1,-1,-1,-1,-1,-1,-1,-1,-1,-1,-1,-1,-1,-1],"split_conditions":[8E0,1E0,1E0,6E0,7E0,1.4E1,1.2E1,5E0,3.1706471E0,1E0,5E0,1.2E1,1.8E1,5E0,2.2E1,2E0,6.824063E-1,6E0,5E0,1E0,6E0,1E1,1.3E1,1.5E1,2.3E1,9E0,6E0,1.8E1,2.3E1,1E0,3E0,2E0,-3.544652E0,2E0,5E0,-3.0398698E0,3E0,-4.9175143E0,-1.8727252E0,-4.738981E0,-3.6240997E0,-2.0071754E0,-2.9024756E0,-6.299612E-1,1.7E1,2E1,-9.6901906E-1,3E0,1E1,1E1,1.1E1,6E0,2.1E1,6E0,5E0,1.2390937E0,8.7649006E-1,2.9447546E0,2.0039184E0,-4.249559E-1,-1.9853425E0,-4.070574E0,-6.2963815E0,-4.4887977E0,-3.3744178E0,9.4167525E-1,5.366178E-2,-1.3827837E0,-9.0022063E-1,1.2373087E-1,1.5019845E0,2.5393043E0,1.746299E0,1.1328182E0,6.352343E-1,-2.8392017E0,-7.404523E-1,8.008659E-1,-2.1186282E-1,2.1391654E0,3.734434E0,5.718203E0,2.961439E0,1.5716981E0,9.203447E-1,-1.2129145E0,9.363001E-1],"split_indices":[1,1,0,0,1,1,1,0,0,0,0,1,1,0,1,0,0,1,1,0,0,1,1,1,1,1,0,1,1,0,0,1,0,1,0,0,0,0,0,0,0,0,0,0,1,1,0,0,1,1,1,0,1,0,0,0,0,0,0,0,0,0,0,0,0,0,0,0,0,0,0,0,0,0,0,0,0,0,0,0,0,0,0,0,0,0,0],"split_type":[0,0,0,0,0,0,0,0,0,0,0,0,0,0,0,0,0,0,0,0,0,0,0,0,0,0,0,0,0,0,0,0,0,0,0,0,0,0,0,0,0,0,0,0,0,0,0,0,0,0,0,0,0,0,0,0,0,0,0,0,0,0,0,0,0,0,0,0,0,0,0,0,0,0,0,0,0,0,0,0,0,0,0,0,0,0,0],"sum_hessian":[5.682E3,1.885E3,3.797E3,2.38E2,1.647E3,5.32E2,3.265E3,2.04E2,3.4E1,1.417E3,2.3E2,2E2,3.32E2,8.03E2,2.462E3,1.72E2,3.2E1,1.96E2,1.221E3,1.64E2,6.6E1,1.3E2,7E1,1.29E2,2.03E2,5.27E2,2.76E2,2.058E3,4.04E2,6.7E1,1.05E2,1.65E2,3.1E1,8.21E2,4E2,3.6E1,1.28E2,3E1,3.6E1,6.7E1,6.3E1,3.5E1,3.5E1,2.8E1,1.01E2,1.66E2,3.7E1,1.28E2,3.99E2,1.36E2,1.4E2,1.224E3,8.34E2,1.95E2,2.09E2,3.5E1,3.2E1,3.5E1,7E1,2.8E1,1.37E2,2.13E2,6.08E2,2.69E2,1.31E2,6.2E1,6.6E1,6.4E1,3.7E1,7.4E1,9.2E1,6.6E1,6.2E1,1.41E2,2.58E2,6.7E1,6.9E1,1.09E2,3.1E1,1.019E3,2.05E2,6.18E2,2.16E2,1.6E2,3.5E1,1.35E2,7.4E1],"tree_param":{"num_deleted":"0","num_feature":"3","num_nodes":"87","size_leaf_vector":"1"}},{"base_weights":[-9.971568E-1,-1.9818846E1,8.38173E0,1.2786926E1,-2.418306E1,-4.8827195E-1,1.3674842E1,2.4130642E0,1.2102074E1,-2.6696215E1,-8.733864E0,-1.957802E1,2.7487457E0,1.5849361E1,-5.0653787E0,7.600873E-1,1.3272219E1,-1.5052407E1,-2.8482666E1,-2.6115074E0,-7.079974E0,-2.396562E1,-1.107935E1,4.2066984E0,-4.3711734E0,-3.7913114E-1,1.8560242E1,-8.860021E0,-2.1229198E0,1.2492681E1,2.4242094E0,-9.258731E0,-2.0690905E1,-3.18193E1,-2.174881E1,-2.5131816E-1,-1.0415398E1,-4.2219124E0,-1.966316E1,-1.0067384E0,-2.2746463E0,1.8554262E0,1.3475908E1,-6.940804E0,1.224387E0,-1.0712034E1,8.172373E0,1.4139094E1,2.2149906E1,-1.0573926E0,-1.8444207E0,-3.8175278E0,3.921183E-1,2.2126298E0,1.5427948E0,-9.770418E-1,-1.5746284E0,-4.4350863E0,-2.4270384E0,-5.35305E0,-3.832552E0,-1.7726438E0,-4.860794E0,-1.0744668E0,1.1661564E0,-1.7909374E0,-1.073472E0,-2.496895E0,-3.5186324E0,6.52205E-1,-4.3226808E-1,9.0965307E-1,2.2477534E0,-5.785322E-2,-1.3231497E0,-1.527551E0,-1.8856772E0,1.0508271E-1,1.5460873E0,3.8518887E0,1.80241E0,4.1857233E0,2.1398466E0,2.8648758E-1,-9.5512486E-1],"categories":[],"categories_nodes":[],"categories_segments":[],"categories_sizes":[],"default_left":[0,0,0,0,0,0,0,0,0,0,0,0,0,0,0,0,0,0,0,0,0,0,0,0,0,0,0,0,0,0,0,0,0,0,0,0,0,0,0,0,0,0,0,0,0,0,0,0,0,0,0,0,0,0,0,0,0,0,0,0,0,0,0,0,0,0,0,0,0,0,0,0,0,0,0,0,0,0,0,0,0,0,0,0,0],"id":8,"left_children":[1,3,5,7,9,11,13,-1,15,17,19,21,23,25,27,-1,29,31,33,-1,35,37,39,41,43,45,47,49,51,53,-1,55,57,59,61,63,65,-1,67,-1,-1,69,71,73,-1,75,77,79,81,-1,-1,83,-1,-1,-1,-1,-1,-1,-1,-1,-1,-1,-1,-1,-1,-1,-1,-1,-1,-1,-1,-1,-1,-1,-1,-1,-1,-1,-1,-1,-1,-1,-1,-1,-1],"loss_changes":[1.0042488E6,2.695382E5,1.782755E5,2.7392578E2,6.456775E4,8.780108E4,9.698606E4,0E0,1.4915684E3,2.9420875E4,3.1388184E3,7.4159688E3,1.2630703E4,9.375725E4,2.750254E3,0E0,1.2841016E2,6.1132812E3,2.7236188E4,0E0,4.507122E3,1.6130781E3,1.1378945E3,2.1965586E4,6.6506714E3,2.7126273E4,2.866625E4,5.890664E2,1.1313353E3,4.6618555E2,0E0,2.2857422E2,3.424746E3,1.7295938E4,4.21595E4,3.5944211E3,5.1318945E2,0E0,3.625547E2,0E0,0E0,9.161252E3,1.8443711E3,1.9537559E3,0E0,3.614258E1,2.4623672E3,2.0891016E4,4.285247E4,0E0,0E0,1.4597946E3,0E0,0E0,0E0,0E0,0E0,0E0,0E0,0E0,0E0,0E0,0E0,0E0,0E0,0E0,0E0,0E0,0E0,0E0,0E0,0E0,0E0,0E0,0E0,0E0,0E0,0E0,0E0,0E0,0E0,0E0,0E0,0E0,0E0],"parents":[2147483647,0,0,1,1,2,2,3,3,4,4,5,5,6,6,8,8,9,9,10,10,11,11,12,12,13,13,14,14,16,16,17,17,18,18,20,20,21,21,22,22,23,23,24,24,25,25,26,26,27,27,28,28,29,29,31,31,32,32,33,33,34,34,35,35,36,36,38,38,41,41,42,42,43,43,45,45,46,46,47,47,48,48,51,51],"right_children":[2,4,6,8,10,12,14,-1,16,18,20,22,24,26,28,-1,30,32,34,-1,36,38,40,42,44,46,48,50,52,54,-1,56,58,60,62,64,66,-1,68,-1,-1,70,72,74,-1,76,78,80,82,-1,-1,84,-1,-1,-1,-1,-1,-1,-1,-1,-1,-1,-1,-1,-1,-1,-1,-1,-1,-1,-1,-1,-1,-1,-1,-1,-1,-1,-1,-1,-1,-1,-1,-1,-1],"split_conditions":[8E0,1E0,1.4E1,1E0,7E0,1E0,2.3E1,2.4130642E0,2E0,1E0,1E0,1.2E1,1.3E1,1E0,3E0,7.600873E-1,6E0,4E0,5E0,-2.6115074E0,3E0,1E1,1.3E1,1.2E1,6E0,1.8E1,1.8E1,2E0,6E0,4E0,2.4242094E0,2E0,5E0,5E0,6E0,2E0,6E0,-4.2219124E0,1.1E1,-1.0067384E0,-2.2746463E0,5E0,2E0,2E0,1.224387E0,1.7E1,1.9E1,2E0,2.1E1,-1.0573926E0,-1.8444207E0,4E0,3.921183E-1,2.2126298E0,1.5427948E0,-9.770418E-1,-1.5746284E0,-4.4350863E0,-2.4270384E0,-5.35305E0,-3.832552E0,-1.7726438E0,-4.860794E0,-1.0744668E0,1.1661564E0,-1.7909374E0,-1.073472E0,-2.496895E0,-3.5186324E0,6.52205E-1,-4.3226808E-1,9.0965307E-1,2.2477534E0,-5.785322E-2,-1.3231497E0,-1.527551E0,-1.8856772E0,1.0508271E-1,1.5460873E0,3.8518887E0,1.80241E0,4.1857233E0,2.1398466E0,2.8648758E-1,-9.5512486E-1],"split_indices":[1,1,1,0,1,0,1,0,0,0,0,1,1,0,0,0,0,1,0,0,0,1,1,1,0,1,1,0,0,0,0,1,1,1,0,0,0,0,1,0,0,0,0,0,0,1,1,0,1,0,0,0,0,0,0,0,0,0,0,0,0,0,0,0,0,0,0,0,0,0,0,0,0,0,0,0,0,0,0,0,0,0,0,0,0],"split_type":[0,0,0,0,0,0,0,0,0,0,0,0,0,0,0,0,0,0,0,0,0,0,0,0,0,0,0,0,0,0,0,0,0,0,0,0,0,0,0,0,0,0,0,0,0,0,0,0,0,0,0,0,0,0,0,0,0,0,0,0,0,0,0,0,0,0,0,0,0,0,0,0,0,0,0,0,0,0,0,0,0,0,0,0,0],"sum_hessian":[5.687E3,1.891E3,3.796E3,2.23E2,1.668E3,1.419E3,2.377E3,3.7E1,1.86E2,1.434E3,2.34E2,2.05E2,1.214E3,2.13E3,2.47E2,2.7E1,1.59E2,1.92E2,1.242E3,3.7E1,1.97E2,1.34E2,7.1E1,1.008E3,2.06E2,3.05E2,1.825E3,1.07E2,1.4E2,1.27E2,3.2E1,9.6E1,9.6E1,8.28E2,4.14E2,6.5E1,1.32E2,6.9E1,6.5E1,3.4E1,3.7E1,8.05E2,2.03E2,1.71E2,3.5E1,1.38E2,1.67E2,8.2E2,1.005E3,6.9E1,3.8E1,1.03E2,3.7E1,6.6E1,6.1E1,2.8E1,6.8E1,3.3E1,6.3E1,5.53E2,2.75E2,2.08E2,2.06E2,3.5E1,3E1,9.3E1,3.9E1,3.6E1,2.9E1,5.31E2,2.74E2,3E1,1.73E2,3.6E1,1.35E2,1.02E2,3.6E1,3.5E1,1.32E2,1.4E2,6.8E2,6.07E2,3.98E2,3.1E1,7.2E1],"tree_param":{"num_deleted":"0","num_feature":"3","num_nodes":"85","size_leaf_vector":"1"}},{"base_weights":[2.7521953E-1,2.0160084E1,-1.5536701E1,1.1707991E1,1.9473659E2,-7.6545386E0,-3.3686333E1,4.6130142E1,7.524156E-2,1.476646E2,2.641811E2,-3.0733374E1,2.833987E0,-4.339899E1,-4.0010214E0,-5.7328236E1,7.259045E1,-1.7063969E1,1.1660008E1,1.3256078E2,2.6287771E1,4.2736492E1,2.8639868E1,-6.540818E0,-4.214947E1,8.0502846E1,-4.1936336E0,-3.7629196E1,-4.9273487E1,-2.2346975E1,2.9807837E0,-7.5716577E0,-9.709819E0,2.6552225E1,1.2104194E2,1.7719868E1,-5.0221096E1,9.846573E1,-1.2597755E1,2.554851E1,1.3602967E1,-1.0504805E1,1.2532058E1,-3.1304934E1,-5.3233025E1,1.3420913E1,1.3493498E2,-9.869034E0,5.661539E1,-7.9415865E0,-3.6344646E1,-5.901796E0,-5.111329E1,-9.322419E-2,-2.5768219E1,-3.336546E0,8.779409E0,1.76027E1,2.8003147E0,2.7846607E1,1.0114526E1,-5.089026E0,1.794199E1,-4.102711E0,-9.36597E0,5.308518E0,2.3310713E1,-6.4478493E0,-1.1634077E0,-2.758111E0,-3.9130417E-1,-4.572488E-2,4.1974063E0,-8.614842E0,-1.0208806E0,-6.7190185E0,-9.559915E0,-3.2619715E-1,5.4227295E0,2.245729E1,8.476714E0,2.8695881E0,-3.8988678E0,1.8548387E0,1.0678819E1,-4.6476836E0,-5.727828E0,-8.226601E0,-6.0393324E0,-2.649711E0,-4.994575E0,-1.1643695E0,3.1517857E-1,5.584534E-1,2.6942022E0],"categories":[],"categories_nodes":[],"categories_segments":[],"categories_sizes":[],"default_left":[0,0,0,0,0,0,0,0,0,0,0,0,0,0,0,0,0,0,0,0,0,0,0,0,0,0,0,0,0,0,0,0,0,0,0,0,0,0,0,0,0,0,0,0,0,0,0,0,0,0,0,0,0,0,0,0,0,0,0,0,0,0,0,0,0,0,0,0,0,0,0,0,0,0,0,0,0,0,0,0,0,0,0,0,0,0,0,0,0,0,0,0,0,0,0],"id":9,"left_children":[1,3,5,7,9,11,13,15,17,19,21,23,25,27,29,31,33,35,37,39,-1,-1,-1,41,43,45,47,49,51,53,55,-1,-1,57,59,61,63,65,67,-1,-1,69,71,73,75,77,79,81,83,-1,85,-1,87,-1,89,91,93,-1,-1,-1,-1,-1,-1,-1,-1,-1,-1,-1,-1,-1,-1,-1,-1,-1,-1,-1,-1,-1,-1,-1,-1,-1,-1,-1,-1,-1,-1,-1,-1,-1,-1,-1,-1,-1,-1],"loss_changes":[1.7994124E6,3.7382055E6,4.5581206E5,9.686229E5,3.434505E5,5.384351E5,2.7805838E5,1.6767982E6,3.593827E5,3.996875E3,3.66075E3,1.9167262E5,8.354534E5,2.2787375E4,3.0679613E4,2.9235E3,1.0830982E6,8.428223E5,2.2754102E6,5.9327438E4,0E0,0E0,0E0,1.706708E4,5.5066062E4,4.619185E5,4.85101E5,4.9881875E3,4.9713125E3,4.8922344E3,6.403231E3,0E0,0E0,1.8060014E5,7.859425E5,1.8260464E6,9.590681E4,8.1146875E5,1.243103E5,0E0,0E0,1.11441875E4,7.508439E3,1.489521E5,1.7355875E4,2.0048938E4,6.0147875E4,5.78878E5,7.061825E4,0E0,1.297125E3,0E0,7.648875E3,0E0,2.7703594E3,1.966105E3,4.073184E3,0E0,0E0,0E0,0E0,0E0,0E0,0E0,0E0,0E0,0E0,0E0,0E0,0E0,0E0,0E0,0E0,0E0,0E0,0E0,0E0,0E0,0E0,0E0,0E0,0E0,0E0,0E0,0E0,0E0,0E0,0E0,0E0,0E0,0E0,0E0,0E0,0E0,0E0],"parents":[2147483647,0,0,1,1,2,2,3,3,4,4,5,5,6,6,7,7,8,8,9,9,10,10,11,11,12,12,13,13,14,14,15,15,16,16,17,17,18,18,19,19,23,23,24,24,25,25,26,26,27,27,28,28,29,29,30,30,33,33,34,34,35,35,36,36,37,37,38,38,41,41,42,42,43,43,44,44,45,45,46,46,47,47,48,48,50,50,52,52,54,54,55,55,56,56],"right_children":[2,4,6,8,10,12,14,16,18,20,22,24,26,28,30,32,34,36,38,40,-1,-1,-1,42,44,46,48,50,52,54,56,-1,-1,58,60,62,64,66,68,-1,-1,70,72,74,76,78,80,82,84,-1,86,-1,88,-1,90,92,94,-1,-1,-1,-1,-1,-1,-1,-1,-1,-1,-1,-1,-1,-1,-1,-1,-1,-1,-1,-1,-1,-1,-1,-1,-1,-1,-1,-1,-1,-1,-1,-1,-1,-1,-1,-1,-1,-1],"split_conditions":[2.1E1,2E1,4E1,5E0,1.5E1,2.7E1,4.6E1,1E0,1.1E1,1E1,2.2E1,2.3E1,2.8E1,1.2E1,7E0,1.2E1,1.2E1,8E0,1.3E1,6E0,2.6287771E1,4.2736492E1,2.8639868E1,2E1,2.5E1,1.1E1,3.9E1,1E0,4.1E1,1E0,4.7E1,-7.5716577E0,-9.709819E0,1E0,3E0,7E0,9E0,1.2E1,1.4E1,2.554851E1,1.3602967E1,2.2E1,2.2E1,2.4E1,1.2E1,7E0,2.2E1,3.2E1,6E0,-7.9415865E0,3E0,-5.901796E0,4.5E1,-9.322419E-2,4.7E1,1.7E1,1.8E1,1.76027E1,2.8003147E0,2.7846607E1,1.0114526E1,-5.089026E0,1.794199E1,-4.102711E0,-9.36597E0,5.308518E0,2.3310713E1,-6.4478493E0,-1.1634077E0,-2.758111E0,-3.9130417E-1,-4.572488E-2,4.1974063E0,-8.614842E0,-1.0208806E0,-6.7190185E0,-9.559915E0,-3.2619715E-1,5.4227295E0,2.245729E1,8.476714E0,2.8695881E0,-3.8988678E0,1.8548387E0,1.0678819E1,-4.6476836E0,-5.727828E0,-8.226601E0,-6.0393324E0,-2.649711E0,-4.994575E0,-1.1643695E0,3.1517857E-1,5.584534E-1,2.6942022E0],"split_indices":[2,2,2,2,1,2,2,2,2,1,1,2,2,1,1,1,1,2,2,1,0,0,0,1,2,1,2,1,2,1,2,0,0,1,2,2,2,2,2,0,0,2,2,2,1,1,1,2,1,0,1,0,2,0,2,1,1,0,0,0,0,0,0,0,0,0,0,0,0,0,0,0,0,0,0,0,0,0,0,0,0,0,0,0,0,0,0,0,0,0,0,0,0,0,0],"split_type":[0,0,0,0,0,0,0,0,0,0,0,0,0,0,0,0,0,0,0,0,0,0,0,0,0,0,0,0,0,0,0,0,0,0,0,0,0,0,0,0,0,0,0,0,0,0,0,0,0,0,0,0,0,0,0,0,0,0,0,0,0,0,0,0,0,0,0,0,0,0,0,0,0,0,0,0,0,0,0,0,0,0,0,0,0,0,0,0,0,0,0,0,0,0,0],"sum_hessian":[5.721E3,2.534E3,3.187E3,2.418E3,1.16E2,2.223E3,9.64E2,6.1E2,1.808E3,7.1E1,4.5E1,6.94E2,1.529E3,7.26E2,2.38E2,1.24E2,4.86E2,7.29E2,1.079E3,4.8E1,2.3E1,3.5E1,1E1,2.23E2,4.71E2,1.26E2,1.403E3,3.7E2,3.56E2,6.5E1,1.73E2,6E1,6.4E1,2.5E2,2.36E2,3.56E2,3.73E2,2.35E2,8.44E2,2.5E1,2.3E1,1.85E2,3.8E1,2.4E2,2.31E2,5.7E1,6.9E1,1.284E3,1.19E2,2.7E1,3.43E2,5.6E1,3E2,9E0,5.6E1,8.3E1,9E1,2E1,2.3E2,1.1E2,1.26E2,2.36E2,1.2E2,1.22E2,2.51E2,1.09E2,1.26E2,1.2E2,7.24E2,9.4E1,9.1E1,2.1E1,1.7E1,1.18E2,1.22E2,1.2E2,1.11E2,3.4E1,2.3E1,5.9E1,1E1,4.54E2,8.3E2,2.8E1,9.1E1,6.3E1,2.8E2,2.38E2,6.2E1,2.7E1,2.9E1,4.6E1,3.7E1,5.8E1,3.2E1],"tree_param":{"num_deleted":"0","num_feature":"3","num_nodes":"95","size_leaf_vector":"1"}},{"base_weights":[-2.9121488E-1,9.982806E0,-2.0526793E1,7.166995E0,9.754863E1,-4.361984E1,-1.5091279E1,-1.2152174E1,1.6795816E1,1.1505281E1,1.4925278E2,-2.9782467E1,-7.209757E1,5.5922413E1,-2.148639E1,1.996071E1,-1.6364641E1,4.7614017E1,5.545186E0,8.2760105E0,-2.2604792E0,1.6696358E2,9.561644E0,-1.8705006E1,-4.2035614E1,-8.125622E0,-1.2311347E1,3.36595E1,1.4082166E1,-7.6582212E0,-2.8348635E1,7.122417E1,1.2358267E1,-1.4286203E1,-4.684208E1,-7.768153E0,6.173174E1,-4.5345615E1,1.3305162E1,-1.8672113E1,5.3756723E0,1.8943632E1,2.6867474E1,-1.5316364E1,-4.850467E0,-5.485444E0,-7.1566286E0,1.6902168E1,7.8204103E0,-2.6133108E1,4.8621418E1,-3.683325E1,-3.3052497E0,-1.347772E-1,1.9675732E1,-1.8878616E0,3.2177703E0,-2.7384818E0,-7.5605005E-1,-8.280819E0,-5.836827E0,1.838752E1,5.830319E0,-8.502807E0,-3.593924E0,1.5871707E1,4.8768958E-1,-3.3016376E0,-2.0814059E0,-3.2742598E0,-8.855681E-1,8.736378E0,-8.766749E-2,-2.4182837E0,-7.2503333E0,5.2995477E0,1.3116703E1,-4.9574347E0,-6.440626E0,-2.7913876E0,3.5644478E-1],"categories":[],"categories_nodes":[],"categories_segments":[],"categories_sizes":[],"default_left":[0,0,0,0,0,0,0,0,0,0,0,0,0,0,0,0,0,0,0,0,0,0,0,0,0,0,0,0,0,0,0,0,0,0,0,0,0,0,0,0,0,0,0,0,0,0,0,0,0,0,0,0,0,0,0,0,0,0,0,0,0,0,0,0,0,0,0,0,0,0,0,0,0,0,0,0,0,0,0,0,0],"id":10,"left_children":[1,3,5,7,9,11,13,15,17,19,21,23,25,27,29,31,33,35,37,-1,39,41,-1,43,45,-1,-1,47,-1,49,51,53,55,57,59,-1,61,63,65,67,-1,-1,-1,69,-1,-1,-1,71,-1,73,75,77,79,-1,-1,-1,-1,-1,-1,-1,-1,-1,-1,-1,-1,-1,-1,-1,-1,-1,-1,-1,-1,-1,-1,-1,-1,-1,-1,-1,-1],"loss_changes":[1.1779626E6,9.2590644E5,2.3883875E5,6.77692E5,5.1879225E5,1.4089544E5,7.033026E5,1.642793E5,8.4262244E5,2.6607145E4,1.01451375E5,3.2604219E4,1.4843875E4,1.0062997E5,1.3443512E5,5.4071375E4,6.723719E4,9.074339E5,7.043355E5,0E0,2.2201033E4,1.6925E3,0E0,5.3263164E3,1.753125E3,0E0,0E0,2.3040234E4,0E0,4.9203734E5,2.0131256E5,7.510199E4,2.7062982E4,3.4301594E4,2.2656094E3,0E0,7.821465E5,5.215478E4,1.4187525E6,7.831348E1,0E0,0E0,0E0,6.0756387E3,0E0,0E0,0E0,3.0375525E4,0E0,7.755684E4,5.7691156E4,1.51649375E4,2.0433492E4,0E0,0E0,0E0,0E0,0E0,0E0,0E0,0E0,0E0,0E0,0E0,0E0,0E0,0E0,0E0,0E0,0E0,0E0,0E0,0E0,0E0,0E0,0E0,0E0,0E0,0E0,0E0,0E0],"parents":[2147483647,0,0,1,1,2,2,3,3,4,4,5,5,6,6,7,7,8,8,9,9,10,10,11,11,12,12,13,13,14,14,15,15,16,16,17,17,18,18,20,20,21,21,23,23,24,24,27,27,29,29,30,30,31,31,32,32,33,33,34,34,36,36,37,37,38,38,39,39,43,43,47,47,49,49,50,50,51,51,52,52],"right_children":[2,4,6,8,10,12,14,16,18,20,22,24,26,28,30,32,34,36,38,-1,40,42,-1,44,46,-1,-1,48,-1,50,52,54,56,58,60,-1,62,64,66,68,-1,-1,-1,70,-1,-1,-1,72,-1,74,76,78,80,-1,-1,-1,-1,-1,-1,-1,-1,-1,-1,-1,-1,-1,-1,-1,-1,-1,-1,-1,-1,-1,-1,-1,-1,-1,-1,-1,-1],"split_conditions":[3.2E1,3.1E1,3.5E1,8E0,9E0,3.4E1,3.6E1,1E0,8E0,2E0,2.1E1,3.3E1,7E0,1.6E1,4E1,4E0,2.9E1,1E0,1.1E1,8.2760105E0,7E0,1.2E1,9.561644E0,1.9E1,1.2E1,-8.125622E0,-1.2311347E1,8E0,1.4082166E1,3.9E1,4.6E1,2E0,1.1E1,6E0,3E1,-7.768153E0,3E0,1E1,1.3E1,4E0,5.3756723E0,1.8943632E1,2.6867474E1,1.2E1,-4.850467E0,-5.485444E0,-7.1566286E0,2E0,7.8204103E0,3.8E1,1.7E1,1.3E1,7E0,-1.347772E-1,1.9675732E1,-1.8878616E0,3.2177703E0,-2.7384818E0,-7.5605005E-1,-8.280819E0,-5.836827E0,1.838752E1,5.830319E0,-8.502807E0,-3.593924E0,1.5871707E1,4.8768958E-1,-3.3016376E0,-2.0814059E0,-3.2742598E0,-8.855681E-1,8.736378E0,-8.766749E-2,-2.4182837E0,-7.2503333E0,5.2995477E0,1.3116703E1,-4.9574347E0,-6.440626E0,-2.7913876E0,3.5644478E-1],"split_indices":[2,2,2,1,1,2,2,1,2,1,1,2,1,1,2,2,2,2,2,0,1,1,0,1,1,0,0,1,0,2,2,2,2,1,2,0,2,2,2,1,0,0,0,1,0,0,0,1,0,2,1,1,1,0,0,0,0,0,0,0,0,0,0,0,0,0,0,0,0,0,0,0,0,0,0,0,0,0,0,0,0],"split_type":[0,0,0,0,0,0,0,0,0,0,0,0,0,0,0,0,0,0,0,0,0,0,0,0,0,0,0,0,0,0,0,0,0,0,0,0,0,0,0,0,0,0,0,0,0,0,0,0,0,0,0,0,0,0,0,0,0,0,0,0,0,0,0,0,0,0,0,0,0,0,0,0,0,0,0,0,0,0,0,0,0],"sum_hessian":[5.664E3,3.757E3,1.907E3,3.641E3,1.16E2,3.62E2,1.545E3,1.211E3,2.43E3,4.4E1,7.2E1,2.45E2,1.17E2,1.27E2,1.418E3,1.4E2,1.071E3,6.49E2,1.781E3,1E1,3.4E1,5.9E1,1.3E1,1.3E2,1.15E2,3.9E1,7.8E1,8E1,4.7E1,4.71E2,9.47E2,1.7E1,1.23E2,1.004E3,6.7E1,8.1E1,5.68E2,2.35E2,1.546E3,2.4E1,1E1,1.3E1,4.6E1,1.05E2,2.5E1,5.5E1,6E1,4.2E1,3.8E1,3.55E2,1.16E2,7.07E2,2.4E2,8E0,9E0,3.2E1,9.1E1,7.2E2,2.84E2,3.3E1,3.4E1,1.61E2,4.07E2,1.58E2,7.7E1,1.54E2,1.392E3,1.3E1,1.1E1,6.3E1,4.2E1,1.2E1,3E1,2.41E2,1.14E2,8.6E1,3E1,3.96E2,3.11E2,6.5E1,1.75E2],"tree_param":{"num_deleted":"0","num_feature":"3","num_nodes":"81","size_leaf_vector":"1"}},{"base_weights":[5.574575E-1,1.6068895E1,-1.1816347E1,8.588602E0,1.6104376E2,-6.676971E0,-2.4025543E1,3.438026E1,1.3483374E-1,1.17464775E2,2.2231978E2,-2.608644E1,2.0724666E0,-3.081069E1,-3.0911226E0,-6.438512E0,5.3455593E1,-3.1345064E1,4.6805096E0,1.04692055E2,2.154209E1,2.3653766E2,2.4962229E1,-1.6118635E1,-4.4865402E1,7.101634E1,-3.5929453E0,-2.7013752E1,-3.5509678E1,-1.6763586E1,1.9730672E0,1.8090734E1,8.874379E1,-2.4019981E1,-3.767643E1,9.882886E1,-3.0982122E0,2.2452282E1,1.4089057E1,2.765573E1,4.2275753E1,-6.110655E0,-2.5373426E1,-3.2345585E1,-5.123899E1,1.4603437E1,1.1062246E2,-7.729025E0,4.3122047E1,-3.868003E1,-2.5978033E1,-3.0202063E1,-4.0589664E1,1.5651892E0,-2.0957373E1,-2.2507887E0,7.7753882E0,4.632836E0,-3.2383385E0,1.9628056E1,7.3809533E0,-4.517004E0,-2.3686578E0,-6.3409157E0,-1.4876463E0,2.7184153E0,2.0989452E1,-5.5591197E0,1.264064E0,-1.4405673E0,1.1710653E0,-7.2770553E0,-5.7288873E-1,-8.148719E0,-4.3814993E0,-6.9058304E0,-8.681777E0,7.165479E-1,7.3816166E0,1.8901104E1,5.8326106E0,1.6140268E0,-2.745118E0,4.366717E0,1.11192875E1,-4.508696E0,-6.9901834E0,-3.593021E0,-4.336422E0,-5.6178656E0,-2.7004921E0,-7.01698E0,-4.5008693E0,-2.2913754E0,-3.8978689E0,1.6871075E-1,-1.0899454E0,3.312454E-1,2.0556161E0],"categories":[],"categories_nodes":[],"categories_segments":[],"categories_sizes":[],"default_left":[0,0,0,0,0,0,0,0,0,0,0,0,0,0,0,0,0,0,0,0,0,0,0,0,0,0,0,0,0,0,0,0,0,0,0,0,0,0,0,0,0,0,0,0,0,0,0,0,0,0,0,0,0,0,0,0,0,0,0,0,0,0,0,0,0,0,0,0,0,0,0,0,0,0,0,0,0,0,0,0,0,0,0,0,0,0,0,0,0,0,0,0,0,0,0,0,0,0,0],"id":11,"left_children":[1,3,5,7,9,11,13,15,17,19,21,23,25,27,29,-1,31,33,35,37,-1,39,-1,41,43,45,47,49,51,53,55,57,59,61,63,65,67,-1,-1,-1,-1,69,71,73,75,77,79,81,83,85,87,89,91,-1,93,95,97,-1,-1,-1,-1,-1,-1,-1,-1,-1,-1,-1,-1,-1,-1,-1,-1,-1,-1,-1,-1,-1,-1,-1,-1,-1,-1,-1,-1,-1,-1,-1,-1,-1,-1,-1,-1,-1,-1,-1,-1,-1,-1],"loss_changes":[1.0848174E6,2.718428E6,1.9711822E5,5.2023094E5,3.02338E5,3.760398E5,1.3214688E5,8.628035E5,2.5743584E5,7.6809375E3,2.9905E3,1.2806009E5,5.9669444E5,1.15835E4,1.5889025E4,0E0,5.874326E5,9.62275E3,1.1515664E6,1.36385625E4,0E0,3.50055E4,0E0,4.161735E4,1.7334125E4,2.5756288E5,2.7315556E5,3.7437812E3,7.1594688E3,7.242047E3,4.1348726E3,1.151164E5,3.7415212E5,4.670176E3,1.2649531E4,3.7454725E5,5.5200444E5,0E0,0E0,0E0,0E0,1.0094256E4,1.1281045E5,4.7978203E3,2.7070938E3,1.6174474E4,6.0712562E4,2.4425131E5,4.7544203E4,6.013164E2,1.4918906E3,1.2273266E4,8.0035E3,0E0,1.0895879E3,1.618291E3,2.2392192E3,0E0,0E0,0E0,0E0,0E0,0E0,0E0,0E0,0E0,0E0,0E0,0E0,0E0,0E0,0E0,0E0,0E0,0E0,0E0,0E0,0E0,0E0,0E0,0E0,0E0,0E0,0E0,0E0,0E0,0E0,0E0,0E0,0E0,0E0,0E0,0E0,0E0,0E0,0E0,0E0,0E0,0E0],"parents":[2147483647,0,0,1,1,2,2,3,3,4,4,5,5,6,6,7,7,8,8,9,9,10,10,11,11,12,12,13,13,14,14,16,16,17,17,18,18,19,19,21,21,23,23,24,24,25,25,26,26,27,27,28,28,29,29,30,30,31,31,32,32,33,33,34,34,35,35,36,36,41,41,42,42,43,43,44,44,45,45,46,46,47,47,48,48,49,49,50,50,51,51,52,52,54,54,55,55,56,56],"right_children":[2,4,6,8,10,12,14,16,18,20,22,24,26,28,30,-1,32,34,36,38,-1,40,-1,42,44,46,48,50,52,54,56,58,60,62,64,66,68,-1,-1,-1,-1,70,72,74,76,78,80,82,84,86,88,90,92,-1,94,96,98,-1,-1,-1,-1,-1,-1,-1,-1,-1,-1,-1,-1,-1,-1,-1,-1,-1,-1,-1,-1,-1,-1,-1,-1,-1,-1,-1,-1,-1,-1,-1,-1,-1,-1,-1,-1,-1,-1,-1,-1,-1,-1],"split_conditions":[2.1E1,2E1,4E1,5E0,1.5E1,2.7E1,4.6E1,1E0,7E0,1E1,2.2E1,2.5E1,2.8E1,1.3E1,7E0,-6.438512E0,1.2E1,6E0,8E0,2E0,2.154209E1,1.8E1,2.4962229E1,2.3E1,8E0,1.1E1,3.9E1,1E0,4.3E1,1E0,1.7E1,4E0,3E0,1.4E1,2.1E1,8E0,1.1E1,2.2452282E1,1.4089057E1,2.765573E1,4.2275753E1,1.9E1,2.4E1,1E0,2.6E1,9E0,2.2E1,3.2E1,1.6E1,4.3E1,7E0,4.2E1,4.5E1,1.5651892E0,4.7E1,1.3E1,4.7E1,4.632836E0,-3.2383385E0,1.9628056E1,7.3809533E0,-4.517004E0,-2.3686578E0,-6.3409157E0,-1.4876463E0,2.7184153E0,2.0989452E1,-5.5591197E0,1.264064E0,-1.4405673E0,1.1710653E0,-7.2770553E0,-5.7288873E-1,-8.148719E0,-4.3814993E0,-6.9058304E0,-8.681777E0,7.165479E-1,7.3816166E0,1.8901104E1,5.8326106E0,1.6140268E0,-2.745118E0,4.366717E0,1.11192875E1,-4.508696E0,-6.9901834E0,-3.593021E0,-4.336422E0,-5.6178656E0,-2.7004921E0,-7.01698E0,-4.5008693E0,-2.2913754E0,-3.8978689E0,1.6871075E-1,-1.0899454E0,3.312454E-1,2.0556161E0],"split_indices":[2,2,2,2,1,2,2,2,2,1,1,2,2,1,1,0,1,2,2,1,0,1,0,2,1,1,2,1,2,1,1,2,2,1,1,1,2,0,0,0,0,1,2,1,2,1,1,2,1,2,1,2,2,0,2,1,2,0,0,0,0,0,0,0,0,0,0,0,0,0,0,0,0,0,0,0,0,0,0,0,0,0,0,0,0,0,0,0,0,0,0,0,0,0,0,0,0,0,0],"split_type":[0,0,0,0,0,0,0,0,0,0,0,0,0,0,0,0,0,0,0,0,0,0,0,0,0,0,0,0,0,0,0,0,0,0,0,0,0,0,0,0,0,0,0,0,0,0,0,0,0,0,0,0,0,0,0,0,0,0,0,0,0,0,0,0,0,0,0,0,0,0,0,0,0,0,0,0,0,0,0,0,0,0,0,0,0,0,0,0,0,0,0,0,0,0,0,0,0,0,0],"sum_hessian":[5.65E3,2.507E3,3.143E3,2.385E3,1.22E2,2.213E3,9.3E2,5.88E2,1.797E3,7.3E1,4.9E1,6.87E2,1.526E3,7.02E2,2.28E2,1.17E2,4.71E2,2.26E2,1.571E3,5.1E1,2.2E1,3.7E1,1.2E1,4.5E2,2.37E2,1.15E2,1.411E3,3.92E2,3.1E2,6.1E1,1.67E2,2.36E2,2.35E2,1.07E2,1.19E2,1.19E2,1.452E3,9E0,4.2E1,1.8E1,1.9E1,2.17E2,2.33E2,8.2E1,1.55E2,4.8E1,6.7E1,1.297E3,1.14E2,2.9E1,3.63E2,1.55E2,1.55E2,8E0,5.3E1,9.7E1,7E1,1.8E2,5.6E1,1.17E2,1.18E2,6.3E1,4.4E1,1.04E2,1.5E1,3.9E1,8E1,3.69E2,1.083E3,1.75E2,4.2E1,1.14E2,1.19E2,1E1,7.2E1,8E1,7.5E1,3.8E1,1E1,5.6E1,1.1E1,4.66E2,8.31E2,7.8E1,3.6E1,1.5E1,1.4E1,1.88E2,1.75E2,1E2,5.5E1,1.02E2,5.3E1,2.5E1,2.8E1,5.8E1,3.9E1,3.6E1,3.4E1],"tree_param":{"num_deleted":"0","num_feature":"3","num_nodes":"99","size_leaf_vector":"1"}},{"base_weights":[2.935438E-1,1.3369251E1,-1.0020646E1,6.846183E0,1.4382793E2,-5.3543143E0,-2.0916155E1,1.701824E1,-1.23338585E1,1.59433775E1,1.8837209E2,-2.2192486E1,2.1291506E0,-2.6503937E1,-3.6120226E0,8.172743E0,1.192068E2,-3.7802593E1,-8.243123E0,2.2311152E1,2.033546E2,-4.923268E0,-2.9909756E1,5.6869217E1,-2.8767126E0,-2.2712126E1,-2.9747164E1,-1.2352441E1,2.0916784E-2,2.1252472E1,-1.9379591E1,3.4232986E1,1.5454541E2,-3.0527357E1,-7.067121E0,5.705782E0,-2.2324858E1,3.5285393E1,2.431397E1,-8.250059E0,7.754016E0,-2.1857555E1,-3.7803116E1,8.608525E0,9.327449E1,-6.3459997E0,3.3813934E1,-3.3401688E1,-2.1485107E1,-2.5335026E1,-3.39615E1,1.6806576E0,-1.6974895E1,-4.2864485E0,4.538142E0,1.9047439E0,1.2638488E1,-4.787647E0,2.6765366E0,1.1738109E1,2.1317523E0,2.429734E1,1.6955374E1,-5.0387454E0,-3.6148312E0,-2.016159E0,2.36421E0,-7.192892E0,-1.4409475E0,-1.9906136E0,-5.6954646E-1,-5.9762734E-1,3.2458034E0,-6.1790924E0,-4.36695E-1,-4.0269356E0,-6.506478E0,6.0567217E0,-8.6550556E-2,1.5803731E1,5.611857E0,1.3146474E0,-2.2663772E0,-2.3774316E0,6.6437006E0,-3.945628E0,-5.9439716E0,-2.4248884E0,-3.4340134E0,-4.698882E0,-2.1484144E0,-5.925984E0,-3.4028614E0,-1.6339786E0,-3.3683107E0,5.5070597E-1,-8.378002E-1,2.8831175E-1,1.2831438E0],"categories":[],"categories_nodes":[],"categories_segments":[],"categories_sizes":[],"default_left":[0,0,0,0,0,0,0,0,0,0,0,0,0,0,0,0,0,0,0,0,0,0,0,0,0,0,0,0,0,0,0,0,0,0,0,0,0,0,0,0,0,0,0,0,0,0,0,0,0,0,0,0,0,0,0,0,0,0,0,0,0,0,0,0,0,0,0,0,0,0,0,0,0,0,0,0,0,0,0,0,0,0,0,0,0,0,0,0,0,0,0,0,0,0,0,0,0,0,0],"id":12,"left_children":[1,3,5,7,9,11,13,15,17,-1,19,21,23,25,27,29,31,33,35,-1,37,39,41,43,45,47,49,51,53,55,57,59,61,63,-1,65,67,-1,-1,69,71,73,75,77,79,81,83,85,87,89,91,-1,93,95,97,-1,-1,-1,-1,-1,-1,-1,-1,-1,-1,-1,-1,-1,-1,-1,-1,-1,-1,-1,-1,-1,-1,-1,-1,-1,-1,-1,-1,-1,-1,-1,-1,-1,-1,-1,-1,-1,-1,-1,-1,-1,-1,-1,-1],"loss_changes":[7.710242E5,2.144363E6,1.6237925E5,4.6884122E5,1.903765E5,2.8217884E5,9.253497E4,1.4181622E6,8.647518E4,0E0,4.941625E3,9.167666E4,4.251706E5,8.227875E3,7.4623096E3,5.215171E5,3.7006638E5,5.7231562E3,1.4135678E5,0E0,9.856375E3,9.089352E3,2.942775E4,2.2759969E5,1.8122153E5,3.7156562E3,6.3355625E3,7.6412812E3,3.2688286E3,5.2867425E5,2.07211E5,3.1812086E4,4.3975E2,3.300625E2,0E0,6.7302984E4,1.14041734E5,0E0,0E0,3.6369766E3,7.1880264E3,8.42131E4,1.2103219E4,1.62891875E4,3.9399312E4,1.65744E5,5.9885016E4,3.761875E2,1.4014375E3,1.14465625E4,1.0245031E4,0E0,1.618873E3,8.3912854E2,8.253502E2,0E0,0E0,0E0,0E0,0E0,0E0,0E0,0E0,0E0,0E0,0E0,0E0,0E0,0E0,0E0,0E0,0E0,0E0,0E0,0E0,0E0,0E0,0E0,0E0,0E0,0E0,0E0,0E0,0E0,0E0,0E0,0E0,0E0,0E0,0E0,0E0,0E0,0E0,0E0,0E0,0E0,0E0,0E0,0E0],"parents":[2147483647,0,0,1,1,2,2,3,3,4,4,5,5,6,6,7,7,8,8,10,10,11,11,12,12,13,13,14,14,15,15,16,16,17,17,18,18,20,20,21,21,22,22,23,23,24,24,25,25,26,26,27,27,28,28,29,29,30,30,31,31,32,32,33,33,35,35,36,36,39,39,40,40,41,41,42,42,43,43,44,44,45,45,46,46,47,47,48,48,49,49,50,50,52,52,53,53,54,54],"right_children":[2,4,6,8,10,12,14,16,18,-1,20,22,24,26,28,30,32,34,36,-1,38,40,42,44,46,48,50,52,54,56,58,60,62,64,-1,66,68,-1,-1,70,72,74,76,78,80,82,84,86,88,90,92,-1,94,96,98,-1,-1,-1,-1,-1,-1,-1,-1,-1,-1,-1,-1,-1,-1,-1,-1,-1,-1,-1,-1,-1,-1,-1,-1,-1,-1,-1,-1,-1,-1,-1,-1,-1,-1,-1,-1,-1,-1,-1,-1,-1,-1,-1,-1],"split_conditions":[2.1E1,2E1,4E1,1.3E1,1.4E1,2.7E1,4.6E1,1.2E1,1.4E1,1.59433775E1,1.7E1,2.3E1,2.8E1,1.1E1,7E0,8E0,7E0,1.4E1,1.7E1,2.2311152E1,2.1E1,1.9E1,2.5E1,1E1,3.9E1,1E0,4.3E1,1E0,4.7E1,7E0,1.1E1,2E0,2.2E1,1E1,-7.067121E0,1.5E1,1.8E1,3.5285393E1,2.431397E1,2.2E1,2.2E1,2.4E1,7E0,2E0,2.2E1,3.2E1,5E0,4.3E1,4.1E1,4.2E1,4.5E1,1.6806576E0,4.7E1,9E0,1.7E1,1.9047439E0,1.2638488E1,-4.787647E0,2.6765366E0,1.1738109E1,2.1317523E0,2.429734E1,1.6955374E1,-5.0387454E0,-3.6148312E0,-2.016159E0,2.36421E0,-7.192892E0,-1.4409475E0,-1.9906136E0,-5.6954646E-1,-5.9762734E-1,3.2458034E0,-6.1790924E0,-4.36695E-1,-4.0269356E0,-6.506478E0,6.0567217E0,-8.6550556E-2,1.5803731E1,5.611857E0,1.3146474E0,-2.2663772E0,-2.3774316E0,6.6437006E0,-3.945628E0,-5.9439716E0,-2.4248884E0,-3.4340134E0,-4.698882E0,-2.1484144E0,-5.925984E0,-3.4028614E0,-1.6339786E0,-3.3683107E0,5.5070597E-1,-8.378002E-1,2.8831175E-1,1.2831438E0],"split_indices":[2,2,2,2,1,2,2,2,2,0,1,2,2,1,1,2,1,1,2,0,1,1,2,1,2,1,2,1,2,2,2,1,1,1,0,2,2,0,0,2,2,2,1,1,1,2,1,2,2,2,2,0,2,1,1,0,0,0,0,0,0,0,0,0,0,0,0,0,0,0,0,0,0,0,0,0,0,0,0,0,0,0,0,0,0,0,0,0,0,0,0,0,0,0,0,0,0,0,0],"split_type":[0,0,0,0,0,0,0,0,0,0,0,0,0,0,0,0,0,0,0,0,0,0,0,0,0,0,0,0,0,0,0,0,0,0,0,0,0,0,0,0,0,0,0,0,0,0,0,0,0,0,0,0,0,0,0,0,0,0,0,0,0,0,0,0,0,0,0,0,0,0,0,0,0,0,0,0,0,0,0,0,0,0,0,0,0,0,0,0,0,0,0,0,0,0,0,0,0,0,0],"sum_hessian":[5.715E3,2.52E3,3.195E3,2.401E3,1.19E2,2.238E3,9.57E2,1.569E3,8.32E2,6.5E1,5.4E1,6.88E2,1.55E3,7.23E2,2.34E2,1.445E3,1.24E2,1.14E2,7.18E2,1.7E1,3.7E1,2.13E2,4.75E2,1.29E2,1.421E3,3.37E2,3.86E2,6.8E1,1.66E2,9.8E2,4.65E2,3.7E1,8.7E1,6.4E1,5E1,3.61E2,3.57E2,2E1,1.7E1,1.69E2,4.4E1,2.37E2,2.38E2,5.6E1,7.3E1,1.299E3,1.22E2,3.2E1,3.05E2,1.92E2,1.94E2,1.1E1,5.7E1,8.5E1,8.1E1,8.59E2,1.21E2,3.51E2,1.14E2,1.1E1,2.6E1,7.6E1,1.1E1,4.4E1,2E1,1.23E2,2.38E2,1.21E2,2.36E2,8.1E1,8.8E1,2.4E1,2E1,1.19E2,1.18E2,7.3E1,1.65E2,1.2E1,4.4E1,6.1E1,1.2E1,4.71E2,8.28E2,2E1,1.02E2,1.6E1,1.6E1,5E1,2.55E2,1.28E2,6.4E1,1.35E2,5.9E1,2.7E1,3E1,1.1E1,7.4E1,4.9E1,3.2E1],"tree_param":{"num_deleted":"0","num_feature":"3","num_nodes":"99","size_leaf_vector":"1"}},{"base_weights":[8.0590315E-2,1.0518621E1,-8.201146E0,5.299792E0,1.126458E2,-4.274767E0,-1.7468521E1,2.58161E1,-1.5798012E0,9.497582E1,2.439307E1,-1.8534332E1,2.170185E0,-2.2340876E1,-2.6535678E0,-1.9055582E1,5.456616E1,-2.9211311E1,2.655922E0,1.6338724E1,7.489854E1,-1.1064785E1,-3.2652664E1,4.678729E1,-1.996454E0,-1.6536615E1,-2.3416124E1,-5.4210486E0,2.0755441E-1,-5.7813144E0,1.2693808E0,1.25105934E2,1.878771E1,-2.2655735E1,-5.2339473E0,6.641004E1,-2.6808028E0,6.905995E0,1.5144927E1,-4.0588956E0,-1.7637873E1,-4.3374844E0,-3.6531006E1,3.881842E1,1.327895E1,-5.0864854E0,3.0769178E1,-2.3391914E0,-2.859055E0,-4.7266774E0,-2.1575954E1,-2.953917E0,-7.201771E0,-1.7706915E0,2.6169934E0,-2.017939E0,5.4552656E-1,3.3096406E0,2.1387966E1,5.528694E-2,3.4439514E0,-3.0276198E0,-4.336536E0,3.191546E0,1.1310725E1,-4.05554E0,8.533962E-1,-1.4610637E0,2.749125E-1,-5.264603E0,-2.823783E-1,-4.061631E0,-5.777792E0,1.2799828E0,6.9158063E0,1.5881215E0,-2.09642E0,2.0596347E0,5.1892915E0,-1.8076575E0,-3.7722764E0,-6.583058E-1,-2.1551572E-2,-1.1738775E0,-8.382131E-1,1.1865251E-1,1.8293504E0],"categories":[],"categories_nodes":[],"categories_segments":[],"categories_sizes":[],"default_left":[0,0,0,0,0,0,0,0,0,0,0,0,0,0,0,0,0,0,0,0,0,0,0,0,0,0,0,0,0,0,0,0,0,0,0,0,0,0,0,0,0,0,0,0,0,0,0,0,0,0,0,0,0,0,0,0,0,0,0,0,0,0,0,0,0,0,0,0,0,0,0,0,0,0,0,0,0,0,0,0,0,0,0,0,0,0,0],"id":13,"left_children":[1,3,5,7,9,11,13,15,17,19,-1,21,23,25,27,29,31,33,35,-1,37,39,41,43,45,47,49,51,53,-1,55,57,59,61,-1,63,65,-1,-1,67,69,-1,71,73,-1,75,77,-1,-1,-1,79,81,83,-1,85,-1,-1,-1,-1,-1,-1,-1,-1,-1,-1,-1,-1,-1,-1,-1,-1,-1,-1,-1,-1,-1,-1,-1,-1,-1,-1,-1,-1,-1,-1,-1,-1],"loss_changes":[4.9455178E5,1.3483864E6,1.1600058E5,3.4005628E5,8.7571625E4,2.0608497E5,6.844303E4,7.8152825E5,2.1133375E5,1.44095E4,0E0,7.324809E4,2.873141E5,4.068875E3,1.8697972E3,9.083968E4,9.289331E5,7.2524062E3,5.3299106E5,0E0,2.2963625E4,2.1019453E4,2.9009062E3,3.8982906E4,1.4331952E5,1.7314453E1,7.692875E3,5.0591968E2,3.3615403E3,0E0,3.8944692E3,1.9081612E5,1.7177898E4,1.1858945E3,0E0,4.1079062E4,2.8625703E5,0E0,0E0,7.2325195E3,6.2817586E4,0E0,6.21625E2,2.1849266E4,0E0,1.7364947E5,6.392875E3,0E0,0E0,0E0,1.46224375E4,1.9860468E2,1.5917236E1,0E0,1.6806238E3,0E0,0E0,0E0,0E0,0E0,0E0,0E0,0E0,0E0,0E0,0E0,0E0,0E0,0E0,0E0,0E0,0E0,0E0,0E0,0E0,0E0,0E0,0E0,0E0,0E0,0E0,0E0,0E0,0E0,0E0,0E0,0E0],"parents":[2147483647,0,0,1,1,2,2,3,3,4,4,5,5,6,6,7,7,8,8,9,9,11,11,12,12,13,13,14,14,15,15,16,16,17,17,18,18,20,20,21,21,22,22,23,23,24,24,25,25,26,26,27,27,28,28,30,30,31,31,32,32,33,33,35,35,36,36,39,39,40,40,42,42,43,43,45,45,46,46,50,50,51,51,52,52,54,54],"right_children":[2,4,6,8,10,12,14,16,18,20,-1,22,24,26,28,30,32,34,36,-1,38,40,42,44,46,48,50,52,54,-1,56,58,60,62,-1,64,66,-1,-1,68,70,-1,72,74,-1,76,78,-1,-1,-1,80,82,84,-1,86,-1,-1,-1,-1,-1,-1,-1,-1,-1,-1,-1,-1,-1,-1,-1,-1,-1,-1,-1,-1,-1,-1,-1,-1,-1,-1,-1,-1,-1,-1,-1,-1],"split_conditions":[2.1E1,2E1,4E1,5E0,5E0,2.7E1,4.6E1,2E0,7E0,3E0,2.439307E1,2.5E1,2.8E1,4.1E1,4.7E1,1E0,3E0,6E0,8E0,1.6338724E1,4E0,2.3E1,2.6E1,6E0,3.9E1,5E0,4.2E1,3E0,1E0,-5.7813144E0,1E0,1E0,1E0,5E0,-5.2339473E0,1E0,1.1E1,6.905995E0,1.5144927E1,2.2E1,2.4E1,-4.3374844E0,1E0,1E0,1.327895E1,3.2E1,1E0,-2.3391914E0,-2.859055E0,-4.7266774E0,4.3E1,2E0,6E0,-1.7706915E0,6E0,-2.017939E0,5.4552656E-1,3.3096406E0,2.1387966E1,5.528694E-2,3.4439514E0,-3.0276198E0,-4.336536E0,3.191546E0,1.1310725E1,-4.05554E0,8.533962E-1,-1.4610637E0,2.749125E-1,-5.264603E0,-2.823783E-1,-4.061631E0,-5.777792E0,1.2799828E0,6.9158063E0,1.5881215E0,-2.09642E0,2.0596347E0,5.1892915E0,-1.8076575E0,-3.7722764E0,-6.583058E-1,-2.1551572E-2,-1.1738775E0,-8.382131E-1,1.1865251E-1,1.8293504E0],"split_indices":[2,2,2,2,0,2,2,2,2,0,0,2,2,2,2,2,2,2,2,0,0,2,2,0,2,0,2,0,0,0,0,0,0,0,0,0,2,0,0,2,2,0,0,0,0,2,0,0,0,0,2,0,0,0,0,0,0,0,0,0,0,0,0,0,0,0,0,0,0,0,0,0,0,0,0,0,0,0,0,0,0,0,0,0,0,0,0],"split_type":[0,0,0,0,0,0,0,0,0,0,0,0,0,0,0,0,0,0,0,0,0,0,0,0,0,0,0,0,0,0,0,0,0,0,0,0,0,0,0,0,0,0,0,0,0,0,0,0,0,0,0,0,0,0,0,0,0,0,0,0,0,0,0,0,0,0,0,0,0,0,0,0,0,0,0,0,0,0,0,0,0,0,0,0,0,0,0],"sum_hessian":[5.719E3,2.53E3,3.189E3,2.408E3,1.22E2,2.241E3,9.48E2,6.04E2,1.804E3,9.1E1,3.1E1,6.97E2,1.544E3,7.13E2,2.35E2,2.36E2,3.68E2,2.39E2,1.565E3,5.4E1,3.7E1,4.57E2,2.4E2,1.31E2,1.413E3,1.14E2,5.99E2,1.19E2,1.16E2,1.22E2,1.14E2,1.23E2,2.45E2,1.07E2,1.32E2,1.2E2,1.445E3,1.8E1,1.9E1,2.22E2,2.35E2,1.19E2,1.21E2,1.11E2,2E1,1.292E3,1.21E2,7.9E1,3.5E1,1.14E2,4.85E2,5.1E1,6.8E1,1.9E1,9.7E1,1.5E1,9.9E1,1.6E1,1.07E2,4.2E1,2.03E2,7.5E1,3.2E1,1.8E1,1.02E2,3.71E2,1.074E3,1.14E2,1.08E2,1.13E2,1.22E2,1.7E1,1.04E2,2E1,9.1E1,4.63E2,8.29E2,2E1,1.01E2,1.2E2,3.65E2,3.4E1,1.7E1,5E1,1.8E1,8.2E1,1.5E1],"tree_param":{"num_deleted":"0","num_feature":"3","num_nodes":"87","size_leaf_vector":"1"}},{"base_weights":[2.3594902E-1,1.3865766E1,-4.9203525E0,6.2323837E0,1.0293327E2,-1.9920435E0,-1.4719438E1,2.2954433E1,-5.476465E0,8.738489E0,1.6887852E1,-5.0350227E0,-7.835275E-1,-1.908596E1,-1.9018747E0,-1.4030646E1,4.8746426E1,-2.472277E1,2.5923E0,-1.8351572E0,2.6371994E1,-2.022261E1,-1.3181287E1,-5.4486525E-1,-5.3662095E0,-4.934334E0,4.2545E0,1.0952249E2,1.8018763E1,-1.9635427E1,-2.919421E1,6.441249E1,-1.3257817E1,-5.585912E-1,-5.067345E0,1.5470618E0,2.9111702E1,-1.7007067E1,-2.4920425E1,-1.3758671E1,-1.5348192E0,-5.044549E0,7.4004364E-1,-1.0197139E1,3.872465E-1,2.9000163E-1,3.2138317E0,2.625767E0,1.9238434E1,-3.9057395E-1,3.286598E0,-2.7096844E0,-3.6102257E0,-5.515925E0,-4.2459826E0,4.976727E0,1.0615816E1,-3.41105E0,2.3673735E0,-4.4478026E-1,2.3510919E0,5.4726458E0,2.3664806E0,-3.0884638E0,-1.6635154E0,-4.1611695E0,-3.379643E0,-1.8787469E0,-2.8905096E0,-3.376437E-2,-1.5420324E0,-5.2550936E-1,7.8768975E-1,-1.1744363E0,-1.9343641E0,-7.817687E-1,1.0641285E0],"categories":[],"categories_nodes":[],"categories_segments":[],"categories_sizes":[],"default_left":[0,0,0,0,0,0,0,0,0,0,0,0,0,0,0,0,0,0,0,0,0,0,0,0,0,0,0,0,0,0,0,0,0,0,0,0,0,0,0,0,0,0,0,0,0,0,0,0,0,0,0,0,0,0,0,0,0,0,0,0,0,0,0,0,0,0,0,0,0,0,0,0,0,0,0,0,0],"id":14,"left_children":[1,3,5,7,9,11,13,15,17,-1,-1,-1,19,21,23,25,27,29,31,33,35,37,39,41,43,-1,45,47,49,51,53,55,57,59,-1,-1,61,63,65,67,-1,69,71,73,75,-1,-1,-1,-1,-1,-1,-1,-1,-1,-1,-1,-1,-1,-1,-1,-1,-1,-1,-1,-1,-1,-1,-1,-1,-1,-1,-1,-1,-1,-1,-1,-1],"loss_changes":[3.991852E5,1.0593011E6,1.1822174E5,2.8148453E5,3.7375125E4,1.1895683E5,5.3021516E4,5.6540394E5,1.3144275E5,0E0,0E0,0E0,8.732028E4,4.4785E3,1.1347507E3,8.187378E4,6.4978644E5,5.1136875E3,5.8582875E5,1.17902445E5,4.7734844E3,8.503859E3,7.2228516E1,1.0155278E3,1.8939777E3,0E0,4.827222E3,1.7720788E5,1.6976562E4,4.8479297E2,2.3182031E2,1.7843625E4,1.25085695E5,1.0657386E5,0E0,0E0,8.369719E3,6.7799062E3,9.480156E2,4.8491992E2,0E0,9.505812E2,2.5546545E3,1.3195996E2,1.1981786E3,0E0,0E0,0E0,0E0,0E0,0E0,0E0,0E0,0E0,0E0,0E0,0E0,0E0,0E0,0E0,0E0,0E0,0E0,0E0,0E0,0E0,0E0,0E0,0E0,0E0,0E0,0E0,0E0,0E0,0E0,0E0,0E0],"parents":[2147483647,0,0,1,1,2,2,3,3,4,4,5,5,6,6,7,7,8,8,12,12,13,13,14,14,15,15,16,16,17,17,18,18,19,19,20,20,21,21,22,22,23,23,24,24,26,26,27,27,28,28,29,29,30,30,31,31,32,32,33,33,36,36,37,37,38,38,39,39,41,41,42,42,43,43,44,44],"right_children":[2,4,6,8,10,12,14,16,18,-1,-1,-1,20,22,24,26,28,30,32,34,36,38,40,42,44,-1,46,48,50,52,54,56,58,60,-1,-1,62,64,66,68,-1,70,72,74,76,-1,-1,-1,-1,-1,-1,-1,-1,-1,-1,-1,-1,-1,-1,-1,-1,-1,-1,-1,-1,-1,-1,-1,-1,-1,-1,-1,-1,-1,-1,-1,-1],"split_conditions":[1.3E1,1.2E1,4E1,5E0,1E0,1.4E1,4.6E1,2E0,7E0,8.738489E0,1.6887852E1,-5.0350227E0,3.9E1,4.5E1,5E0,1E0,3E0,6E0,8E0,3.8E1,1E0,4.3E1,6E0,1E0,6E0,-4.934334E0,6E0,1E0,1E0,5E0,1E0,1E0,1.1E1,3.5E1,-5.067345E0,1.5470618E0,5E0,4.2E1,4.4E1,5E0,-1.5348192E0,4.7E1,4.7E1,4.7E1,4.7E1,2.9000163E-1,3.2138317E0,2.625767E0,1.9238434E1,-3.9057395E-1,3.286598E0,-2.7096844E0,-3.6102257E0,-5.515925E0,-4.2459826E0,4.976727E0,1.0615816E1,-3.41105E0,2.3673735E0,-4.4478026E-1,2.3510919E0,5.4726458E0,2.3664806E0,-3.0884638E0,-1.6635154E0,-4.1611695E0,-3.379643E0,-1.8787469E0,-2.8905096E0,-3.376437E-2,-1.5420324E0,-5.2550936E-1,7.8768975E-1,-1.1744363E0,-1.9343641E0,-7.817687E-1,1.0641285E0],"split_indices":[2,2,2,2,0,2,2,2,2,0,0,0,2,2,0,2,2,2,2,2,0,2,0,0,0,0,0,0,0,0,0,0,2,2,0,0,0,2,2,0,0,2,2,2,2,0,0,0,0,0,0,0,0,0,0,0,0,0,0,0,0,0,0,0,0,0,0,0,0,0,0,0,0,0,0,0,0],"split_type":[0,0,0,0,0,0,0,0,0,0,0,0,0,0,0,0,0,0,0,0,0,0,0,0,0,0,0,0,0,0,0,0,0,0,0,0,0,0,0,0,0,0,0,0,0,0,0,0,0,0,0,0,0,0,0,0,0,0,0,0,0,0,0,0,0,0,0,0,0,0,0,0,0,0,0,0,0],"sum_hessian":[5.678E3,1.558E3,4.12E3,1.436E3,1.22E2,3.173E3,9.47E2,5.91E2,8.45E2,1.9E1,1.03E2,1.18E2,3.055E3,7.06E2,2.41E2,2.43E2,3.48E2,2.49E2,5.96E2,2.942E3,1.13E2,5.9E2,1.16E2,1.74E2,6.7E1,1.21E2,1.22E2,1.16E2,2.32E2,1.19E2,1.3E2,1.21E2,4.75E2,2.828E3,1.14E2,1.7E1,9.6E1,3.53E2,2.37E2,9.5E1,2.1E1,3.8E1,1.36E2,3.6E1,3.1E1,1.08E2,1.4E1,1.8E1,9.8E1,3.4E1,1.98E2,8.5E1,3.4E1,1.7E1,1.13E2,1.8E1,1.03E2,3.61E2,1.14E2,2.465E3,3.63E2,6.3E1,3.3E1,2.29E2,1.24E2,1.23E2,1.14E2,7.7E1,1.8E1,2E1,1.8E1,7E1,6.6E1,2E1,1.6E1,1.7E1,1.4E1],"tree_param":{"num_deleted":"0","num_feature":"3","num_nodes":"77","size_leaf_vector":"1"}},{"base_weights":[3.8974503E-1,-1.2435357E1,5.624902E0,1.1939591E1,-1.6486206E1,3.5968693E1,2.0263634E0,1.9646976E1,-1.0996186E1,-2.652186E1,-1.4458318E1,-1.3578846E1,6.854267E1,7.9086037E0,-7.866016E0,5.5666256E1,1.5219219E1,-4.147578E0,-5.9377894E0,-8.84774E0,-3.2870262E1,-2.8897245E0,-1.6087423E1,-2.8438446E1,2.8960664E0,1.4914273E2,2.7613493E1,3.9648974E0,1.0801429E2,-3.1927996E1,-2.2604768E0,4.6568674E-1,1.4284529E1,4.6777315E0,2.6963316E1,5.145833E0,-1.6222345E1,-2.6041698E0,-8.8374615E-2,-1.6733242E1,-3.534063E1,-1.1915145E1,1.1165061E1,-1.8545113E1,-1.0873695E1,-3.4821029E0,-4.6872525E0,-1.6758423E1,3.5771465E1,6.041943E0,1.8124712E2,1.5780952E1,3.9962482E1,6.621475E0,-2.92504E1,7.3066006E0,1.2106949E2,-1.8881992E1,-9.266519E0,6.820526E1,-8.556064E0,2.3441675E0,-1.465367E0,1.613042E1,2.229429E0,-3.6136353E0,1.0770594E0,5.9019744E-1,-4.575846E-1,-3.403605E0,-9.348886E-1,-3.8799264E0,-6.129305E0,7.409728E-1,-3.1088989E0,-1.1792377E0,6.4729056E0,-3.1377254E0,-1.8428495E0,-8.235762E-1,-2.3944795E0,2.39661E0,-4.26846E0,8.500984E0,-7.339166E-2,3.2737816E1,3.9718664E0,9.844355E-1,3.2133405E0,8.917841E0,9.8209405E-1,4.7125912E-1,6.882082E0,-5.6423464E0,-3.0164034E0,2.0946012E1,7.9776483E0,-1.441108E0,-4.4559116E0,7.5275617E0,1.3970427E1,-7.009936E-2,-1.9570514E0],"categories":[],"categories_nodes":[],"categories_segments":[],"categories_sizes":[],"default_left":[0,0,0,0,0,0,0,0,0,0,0,0,0,0,0,0,0,0,0,0,0,0,0,0,0,0,0,0,0,0,0,0,0,0,0,0,0,0,0,0,0,0,0,0,0,0,0,0,0,0,0,0,0,0,0,0,0,0,0,0,0,0,0,0,0,0,0,0,0,0,0,0,0,0,0,0,0,0,0,0,0,0,0,0,0,0,0,0,0,0,0,0,0,0,0,0,0,0,0,0,0,0,0],"id":15,"left_children":[1,3,5,7,9,11,13,15,17,19,21,23,25,27,29,31,33,-1,35,37,39,41,43,45,47,49,51,53,55,57,59,-1,-1,61,63,-1,65,-1,67,69,71,73,75,77,79,-1,-1,81,83,-1,85,87,89,91,93,-1,95,97,-1,99,101,-1,-1,-1,-1,-1,-1,-1,-1,-1,-1,-1,-1,-1,-1,-1,-1,-1,-1,-1,-1,-1,-1,-1,-1,-1,-1,-1,-1,-1,-1,-1,-1,-1,-1,-1,-1,-1,-1,-1,-1,-1,-1],"loss_changes":[3.8264178E5,1.6331403E5,4.4183238E5,4.193491E4,2.8454219E4,6.9331975E5,2.1064947E5,2.738157E4,4.7541816E3,2.630114E4,2.2211172E4,4.1944973E4,8.5029525E5,8.957392E5,1.8201633E5,3.768725E4,1.9558113E4,0E0,1.9725213E4,4.6098794E3,6.345047E3,1.8780035E4,1.30605625E4,4.5559375E2,5.3583707E4,2.9874738E5,2.4648094E4,1.9299594E5,6.168925E4,9.474753E4,4.8679456E5,0E0,0E0,1.3129184E4,7.14151E4,0E0,6.776203E3,0E0,3.8037357E2,1.3428926E3,6.1740312E3,1.2881465E4,3.460291E4,8.9459375E3,8.737223E3,0E0,0E0,1.9395863E4,2.2461883E4,0E0,3.4162625E5,4.301535E3,5.1733375E4,2.750652E5,1.11511875E4,0E0,7.107506E4,1.6976113E4,0E0,3.51635E4,3.4847453E4,0E0,0E0,0E0,0E0,0E0,0E0,0E0,0E0,0E0,0E0,0E0,0E0,0E0,0E0,0E0,0E0,0E0,0E0,0E0,0E0,0E0,0E0,0E0,0E0,0E0,0E0,0E0,0E0,0E0,0E0,0E0,0E0,0E0,0E0,0E0,0E0,0E0,0E0,0E0,0E0,0E0,0E0],"parents":[2147483647,0,0,1,1,2,2,3,3,4,4,5,5,6,6,7,7,8,8,9,9,10,10,11,11,12,12,13,13,14,14,15,15,16,16,18,18,19,19,20,20,21,21,22,22,23,23,24,24,25,25,26,26,27,27,28,28,29,29,30,30,33,33,34,34,36,36,38,38,39,39,40,40,41,41,42,42,43,43,44,44,47,47,48,48,50,50,51,51,52,52,53,53,54,54,56,56,57,57,59,59,60,60],"right_children":[2,4,6,8,10,12,14,16,18,20,22,24,26,28,30,32,34,-1,36,38,40,42,44,46,48,50,52,54,56,58,60,-1,-1,62,64,-1,66,-1,68,70,72,74,76,78,80,-1,-1,82,84,-1,86,88,90,92,94,-1,96,98,-1,100,102,-1,-1,-1,-1,-1,-1,-1,-1,-1,-1,-1,-1,-1,-1,-1,-1,-1,-1,-1,-1,-1,-1,-1,-1,-1,-1,-1,-1,-1,-1,-1,-1,-1,-1,-1,-1,-1,-1,-1,-1,-1,-1],"split_conditions":[7E0,1E0,5E0,3.6E1,8E0,2E0,3.2E1,4E0,3.9E1,2E0,1.3E1,1E0,3E0,3.1E1,3.5E1,2E0,2E1,-4.147578E0,4.1E1,1E0,2E0,1.1E1,5E0,1.2E1,1.8E1,1.1E1,1.6E1,2.9E1,1E1,3.4E1,3.6E1,4.6568674E-1,1.4284529E1,1.3E1,2.2E1,5.145833E0,4.6E1,-2.6041698E0,3E0,6E0,4E0,9E0,5E0,4E1,2.9E1,-3.4821029E0,-4.6872525E0,1E1,2.2E1,6.041943E0,2.1E1,1E1,2.1E1,2.7E1,3E1,7.3066006E0,2.1E1,3.3E1,-9.266519E0,1.7E1,4E1,2.3441675E0,-1.465367E0,1.613042E1,2.229429E0,-3.6136353E0,1.0770594E0,5.9019744E-1,-4.575846E-1,-3.403605E0,-9.348886E-1,-3.8799264E0,-6.129305E0,7.409728E-1,-3.1088989E0,-1.1792377E0,6.4729056E0,-3.1377254E0,-1.8428495E0,-8.235762E-1,-2.3944795E0,2.39661E0,-4.26846E0,8.500984E0,-7.339166E-2,3.2737816E1,3.9718664E0,9.844355E-1,3.2133405E0,8.917841E0,9.8209405E-1,4.7125912E-1,6.882082E0,-5.6423464E0,-3.0164034E0,2.0946012E1,7.9776483E0,-1.441108E0,-4.4559116E0,7.5275617E0,1.3970427E1,-7.009936E-2,-1.9570514E0],"split_indices":[1,1,2,2,2,2,2,2,2,2,2,2,2,2,2,2,2,0,2,2,1,2,1,1,1,1,1,2,1,2,2,0,0,2,2,0,2,0,1,2,2,2,1,2,2,0,0,1,1,0,1,1,1,2,2,0,1,2,0,1,2,0,0,0,0,0,0,0,0,0,0,0,0,0,0,0,0,0,0,0,0,0,0,0,0,0,0,0,0,0,0,0,0,0,0,0,0,0,0,0,0,0,0],"split_type":[0,0,0,0,0,0,0,0,0,0,0,0,0,0,0,0,0,0,0,0,0,0,0,0,0,0,0,0,0,0,0,0,0,0,0,0,0,0,0,0,0,0,0,0,0,0,0,0,0,0,0,0,0,0,0,0,0,0,0,0,0,0,0,0,0,0,0,0,0,0,0,0,0,0,0,0,0,0,0,0,0,0,0,0,0,0,0,0,0,0,0,0,0,0,0,0,0,0,0,0,0,0,0],"sum_hessian":[5.697E3,1.651E3,4.046E3,2.35E2,1.416E3,4.28E2,3.618E3,1.76E2,5.9E1,2.36E2,1.18E3,1.7E2,2.58E2,2.269E3,1.349E3,1.8E1,1.58E2,1.3E1,4.6E1,6.3E1,1.73E2,1.46E2,1.034E3,8.9E1,8.1E1,8.6E1,1.72E2,2.184E3,8.5E1,2.54E2,1.095E3,8E0,1E1,8.4E1,7.4E1,9E0,3.7E1,3.2E1,3.1E1,2.4E1,1.49E2,8.9E1,5.7E1,7.01E2,3.33E2,2.9E1,6E1,5.1E1,3E1,2E1,6.6E1,8.9E1,8.3E1,2.023E3,1.61E2,1.6E1,6.9E1,1.76E2,7.8E1,8.9E1,1.006E3,4.8E1,3.6E1,9E0,6.5E1,2.8E1,9E0,1.3E1,1.8E1,1.5E1,9E0,5.1E1,9.8E1,3E1,5.9E1,3.6E1,2.1E1,5.32E2,1.69E2,1.57E2,1.76E2,1.3E1,3.8E1,1.9E1,1.1E1,5.4E1,1.2E1,3.3E1,5.6E1,5.3E1,3E1,1.854E3,1.69E2,8.7E1,7.4E1,5.5E1,1.4E1,9.3E1,8.3E1,5.1E1,3.8E1,3.48E2,6.58E2],"tree_param":{"num_deleted":"0","num_feature":"3","num_nodes":"103","size_leaf_vector":"1"}},{"base_weights":[5.4090166E-1,8.463836E0,-5.6990795E0,3.8699524E0,9.856308E1,-1.5399402E1,-2.9364831E0,1.09599695E1,-9.219373E0,8.017394E1,2.2782064E1,-3.3392498E0,-2.123119E1,3.6111004E1,-5.1063876E0,4.1614313E0,8.534272E1,-2.4758656E0,-1.7980968E1,1.929226E1,1.0345223E1,-8.558993E0,2.3337991E0,-1.7889824E1,-3.0390432E1,9.7424194E-2,4.25547E1,5.8857927E0,-7.875237E0,1.1034168E1,-1.5456872E1,7.30667E0,9.137386E1,-1.915128E1,1.4069821E1,-6.0438876E0,-7.525699E0,-6.227454E0,-1.3620893E1,4.707917E0,-3.6744277E0,-2.971429E1,-1.1720988E1,-3.3368022E0,-4.7953453E0,8.808481E0,3.8953888E1,-1.5415022E1,6.902278E1,-2.5170103E1,-3.8850603E0,-3.5679126E0,2.3474386E0,-7.7529297E0,7.059866E-1,1.2673899E1,1.6387434E1,-4.2158003E0,-1.676699E0,1.8095894E0,2.4510734E0,1.8105526E0,-4.219052E0,-1.3451525E0,-6.807215E-1,-2.5457606E0,-1.4999887E0,-6.1700437E-2,1.2392226E0,-1.1709253E0,1.2321291E-1,-3.6654096E0,-4.808911E0,-2.1136448E-1,-3.403788E0,5.2073646E0,8.3240185E0,1.7813812E0,-4.4604235E0,7.333426E-1,1.1933414E1,-2.265755E0,-7.1189203E0,7.1643596E0,-1.29935E0],"categories":[],"categories_nodes":[],"categories_segments":[],"categories_sizes":[],"default_left":[0,0,0,0,0,0,0,0,0,0,0,0,0,0,0,0,0,0,0,0,0,0,0,0,0,0,0,0,0,0,0,0,0,0,0,0,0,0,0,0,0,0,0,0,0,0,0,0,0,0,0,0,0,0,0,0,0,0,0,0,0,0,0,0,0,0,0,0,0,0,0,0,0,0,0,0,0,0,0,0,0,0,0,0,0],"id":16,"left_children":[1,3,5,7,9,11,13,15,17,19,-1,21,23,25,27,29,31,33,35,-1,-1,37,39,41,43,-1,45,47,49,51,53,-1,55,57,59,-1,61,63,65,67,69,71,73,-1,-1,-1,75,77,79,81,83,-1,-1,-1,-1,-1,-1,-1,-1,-1,-1,-1,-1,-1,-1,-1,-1,-1,-1,-1,-1,-1,-1,-1,-1,-1,-1,-1,-1,-1,-1,-1,-1,-1,-1],"loss_changes":[2.7997162E5,1.0323125E6,8.485109E4,2.2050945E5,1.01062625E5,4.9302344E4,2.0921162E5,7.7891925E5,4.9290523E4,4.3459812E4,0E0,6.830702E3,1.3932203E4,2.9687234E4,7.120501E4,1.9068738E5,2.4750562E4,1.30773086E5,8.184721E4,0E0,0E0,1.331418E3,1.6006295E3,2.5108883E4,4.2853125E2,0E0,3.7692969E3,6.3449744E5,1.28812086E5,1.5737603E5,2.6098422E5,0E0,5.70675E3,1.6039867E4,8.5926953E2,0E0,9.640332E4,3.4477124E2,2.659414E2,1.4007091E3,5.8027783E2,4.6914844E2,2.5264121E4,0E0,0E0,0E0,5.0536562E3,1.3260144E5,7.004481E4,7.694078E4,3.5836356E5,0E0,0E0,0E0,0E0,0E0,0E0,0E0,0E0,0E0,0E0,0E0,0E0,0E0,0E0,0E0,0E0,0E0,0E0,0E0,0E0,0E0,0E0,0E0,0E0,0E0,0E0,0E0,0E0,0E0,0E0,0E0,0E0,0E0,0E0],"parents":[2147483647,0,0,1,1,2,2,3,3,4,4,5,5,6,6,7,7,8,8,9,9,11,11,12,12,13,13,14,14,15,15,16,16,17,17,18,18,21,21,22,22,23,23,24,24,26,26,27,27,28,28,29,29,30,30,32,32,33,33,34,34,36,36,37,37,38,38,39,39,40,40,41,41,42,42,46,46,47,47,48,48,49,49,50,50],"right_children":[2,4,6,8,10,12,14,16,18,20,-1,22,24,26,28,30,32,34,36,-1,-1,38,40,42,44,-1,46,48,50,52,54,-1,56,58,60,-1,62,64,66,68,70,72,74,-1,-1,-1,76,78,80,82,84,-1,-1,-1,-1,-1,-1,-1,-1,-1,-1,-1,-1,-1,-1,-1,-1,-1,-1,-1,-1,-1,-1,-1,-1,-1,-1,-1,-1,-1,-1,-1,-1,-1,-1],"split_conditions":[2.1E1,2E1,2.7E1,1.3E1,5E0,2.3E1,2.8E1,1.2E1,1.7E1,1E0,2.2782064E1,2.2E1,2.6E1,1E0,3.2E1,9E0,1E0,1.5E1,1.8E1,1.929226E1,1.0345223E1,5E0,5E0,2.4E1,1E0,9.7424194E-2,2E0,3.1E1,3.5E1,1E0,1E1,7.30667E0,5E0,1.4E1,1.6E1,-6.0438876E0,1.9E1,2E0,6E0,2E0,6E0,2E0,2.5E1,-3.3368022E0,-4.7953453E0,8.808481E0,6E0,2.9E1,1E0,3.4E1,3.6E1,-3.5679126E0,2.3474386E0,-7.7529297E0,7.059866E-1,1.2673899E1,1.6387434E1,-4.2158003E0,-1.676699E0,1.8095894E0,2.4510734E0,1.8105526E0,-4.219052E0,-1.3451525E0,-6.807215E-1,-2.5457606E0,-1.4999887E0,-6.1700437E-2,1.2392226E0,-1.1709253E0,1.2321291E-1,-3.6654096E0,-4.808911E0,-2.1136448E-1,-3.403788E0,5.2073646E0,8.3240185E0,1.7813812E0,-4.4604235E0,7.333426E-1,1.1933414E1,-2.265755E0,-7.1189203E0,7.1643596E0,-1.29935E0],"split_indices":[2,2,2,2,0,2,2,2,2,0,0,2,2,0,2,2,0,2,2,0,0,0,0,2,0,0,0,2,2,2,2,0,0,2,2,0,2,0,0,0,0,0,2,0,0,0,0,2,0,2,2,0,0,0,0,0,0,0,0,0,0,0,0,0,0,0,0,0,0,0,0,0,0,0,0,0,0,0,0,0,0,0,0,0,0],"split_type":[0,0,0,0,0,0,0,0,0,0,0,0,0,0,0,0,0,0,0,0,0,0,0,0,0,0,0,0,0,0,0,0,0,0,0,0,0,0,0,0,0,0,0,0,0,0,0,0,0,0,0,0,0,0,0,0,0,0,0,0,0,0,0,0,0,0,0,0,0,0,0,0,0,0,0,0,0,0,0,0,0,0,0,0,0],"sum_hessian":[5.661E3,2.494E3,3.167E3,2.374E3,1.2E2,7.01E2,2.466E3,1.54E3,8.34E2,9E1,3E1,2.29E2,4.72E2,1.29E2,2.337E3,1.412E3,1.28E2,4.72E2,3.62E2,1.7E1,7.3E1,1.19E2,1.1E2,3.48E2,1.24E2,2E1,1.09E2,4.7E2,1.867E3,1.046E3,3.66E2,1.9E1,1.09E2,2.35E2,2.37E2,1.17E2,2.45E2,8.3E1,3.6E1,7.9E1,3.1E1,1.18E2,2.3E2,1.6E1,1.08E2,1.8E1,9.1E1,3.52E2,1.18E2,3.49E2,1.518E3,1.17E2,9.29E2,1.32E2,2.34E2,7.6E1,3.3E1,1.14E2,1.21E2,1.16E2,1.21E2,1.25E2,1.2E2,3.2E1,5.1E1,1.8E1,1.8E1,3.2E1,4.7E1,1.6E1,1.5E1,3.2E1,8.6E1,1.17E2,1.13E2,7.2E1,1.9E1,1.19E2,2.33E2,1.5E1,1.03E2,2.37E2,1.12E2,1.26E2,1.392E3],"tree_param":{"num_deleted":"0","num_feature":"3","num_nodes":"85","size_leaf_vector":"1"}},{"base_weights":[2.1366643E-2,-1.0922146E1,4.611641E0,8.166985E0,-1.4009721E1,2.7390182E1,1.972967E0,8.364364E0,5.1598396E0,-2.3951773E1,-1.2124764E1,-1.30733385E1,5.463722E1,6.387778E0,-5.368952E0,9.140102E0,-1.1436595E1,-7.7020364E0,-2.9450495E1,-8.599054E0,-1.5421987E1,-1.980034E1,2.184462E0,1.2047583E2,2.1187267E1,3.311221E0,8.116642E1,-2.3644876E1,-1.3193904E0,6.6671443E0,2.2723421E1,-1.9346113E1,1.6180775E0,3.4468818E-1,-1.0032051E1,-1.48571205E1,-3.1747644E1,-2.673947E0,-1.0229087E1,-2.9773842E1,-1.11706705E1,-1.0815463E1,-2.6931562E1,-3.5969956E0,2.8858711E1,5.0820565E0,1.4945923E2,1.1329649E1,3.258198E1,-2.2218683E1,5.5103955E0,1.2088828E0,9.045464E1,-1.4858497E1,-6.821124E0,4.9693985E1,-5.8683343E0,1.61772E0,-6.8313622E0,4.215534E0,2.7770038E0,-2.3001244E0,-3.3896146E0,-1.9560688E0,8.029473E-2,-3.1191192E0,-6.746706E-1,-5.4216914E0,-2.6942818E0,-1.3486972E0,2.232992E0,-2.2721214E0,-6.943565E-1,-2.9699981E0,-5.5908895E0,3.1811517E-1,-1.8384287E0,-2.4373212E0,-5.963139E-1,-4.418247E0,-2.3942182E0,7.299098E0,-9.639998E-1,2.8536491E1,5.9237585E0,4.3039474E0,1.3149251E0,3.1537256E-1,6.8599486E0,-3.8349211E0,-9.902053E-1,1.1955388E1,3.2731202E-1,1.5062778E1,2.4167101E0,-1.0466766E0,-3.63866E0,5.0319E0,1.0638539E1,-3.784717E0,-6.217354E-1],"categories":[],"categories_nodes":[],"categories_segments":[],"categories_sizes":[],"default_left":[0,0,0,0,0,0,0,0,0,0,0,0,0,0,0,0,0,0,0,0,0,0,0,0,0,0,0,0,0,0,0,0,0,0,0,0,0,0,0,0,0,0,0,0,0,0,0,0,0,0,0,0,0,0,0,0,0,0,0,0,0,0,0,0,0,0,0,0,0,0,0,0,0,0,0,0,0,0,0,0,0,0,0,0,0,0,0,0,0,0,0,0,0,0,0,0,0,0,0,0,0],"id":17,"left_children":[1,3,5,7,9,11,13,-1,15,17,19,21,23,25,27,29,31,33,35,37,39,41,43,45,47,49,51,53,55,57,59,61,-1,-1,63,65,67,69,71,73,75,77,79,-1,81,-1,83,85,87,89,91,-1,93,95,-1,97,99,-1,-1,-1,-1,-1,-1,-1,-1,-1,-1,-1,-1,-1,-1,-1,-1,-1,-1,-1,-1,-1,-1,-1,-1,-1,-1,-1,-1,-1,-1,-1,-1,-1,-1,-1,-1,-1,-1,-1,-1,-1,-1,-1,-1],"loss_changes":[2.8372022E5,9.848378E4,2.3910431E5,3.2418307E4,2.6639469E4,4.5605134E5,1.1565212E5,0E0,1.4637332E4,2.0145602E4,1.39336875E4,1.7184008E4,5.414151E5,5.123066E5,9.9141516E4,5.8276943E3,7.702974E3,1.3921411E3,5.22725E3,5.641965E3,3.7740297E4,7.141211E3,3.6421273E4,2.04686E5,1.8164445E4,1.2032827E5,5.9147375E4,4.433475E4,2.5509017E5,3.128279E4,9.614746E1,5.761328E1,0E0,0E0,1.4219604E3,1.3683408E3,7.1819375E3,1.3799862E4,1.212034E4,9.352719E3,5.675633E3,1.8276836E3,1.00885547E3,0E0,1.7677096E4,0E0,2.5084012E5,3.8737383E3,2.8648562E4,7.6541094E3,4.833166E5,0E0,4.6740812E4,1.2282867E4,0E0,2.7847953E4,3.4155848E4,0E0,0E0,0E0,0E0,0E0,0E0,0E0,0E0,0E0,0E0,0E0,0E0,0E0,0E0,0E0,0E0,0E0,0E0,0E0,0E0,0E0,0E0,0E0,0E0,0E0,0E0,0E0,0E0,0E0,0E0,0E0,0E0,0E0,0E0,0E0,0E0,0E0,0E0,0E0,0E0,0E0,0E0,0E0,0E0],"parents":[2147483647,0,0,1,1,2,2,3,3,4,4,5,5,6,6,8,8,9,9,10,10,11,11,12,12,13,13,14,14,15,15,16,16,17,17,18,18,19,19,20,20,21,21,22,22,23,23,24,24,25,25,26,26,27,27,28,28,29,29,30,30,31,31,34,34,35,35,36,36,37,37,38,38,39,39,40,40,41,41,42,42,44,44,46,46,47,47,48,48,49,49,50,50,52,52,53,53,55,55,56,56],"right_children":[2,4,6,8,10,12,14,-1,16,18,20,22,24,26,28,30,32,34,36,38,40,42,44,46,48,50,52,54,56,58,60,62,-1,-1,64,66,68,70,72,74,76,78,80,-1,82,-1,84,86,88,90,92,-1,94,96,-1,98,100,-1,-1,-1,-1,-1,-1,-1,-1,-1,-1,-1,-1,-1,-1,-1,-1,-1,-1,-1,-1,-1,-1,-1,-1,-1,-1,-1,-1,-1,-1,-1,-1,-1,-1,-1,-1,-1,-1,-1,-1,-1,-1,-1,-1],"split_conditions":[7E0,1E0,5E0,3E0,8E0,2E0,3.2E1,8.364364E0,4E1,2E0,2.7E1,1.8E1,3E0,3.1E1,3.5E1,3.5E1,4.6E1,2E0,2E0,1.2E1,3.2E1,1.2E1,1E0,1.1E1,4E0,7E0,9E0,3.4E1,3.6E1,3.3E1,3.7E1,4.3E1,1.6180775E0,3.4468818E-1,6E0,6E0,6E0,1.1E1,2E1,2.9E1,3.3E1,1E0,1.7E1,-3.5969956E0,2.2E1,5.0820565E0,2E1,9E0,1.2E1,2.1E1,8E0,1.2088828E0,2.2E1,3.3E1,-6.821124E0,1.7E1,3.7E1,1.61772E0,-6.8313622E0,4.215534E0,2.7770038E0,-2.3001244E0,-3.3896146E0,-1.9560688E0,8.029473E-2,-3.1191192E0,-6.746706E-1,-5.4216914E0,-2.6942818E0,-1.3486972E0,2.232992E0,-2.2721214E0,-6.943565E-1,-2.9699981E0,-5.5908895E0,3.1811517E-1,-1.8384287E0,-2.4373212E0,-5.963139E-1,-4.418247E0,-2.3942182E0,7.299098E0,-9.639998E-1,2.8536491E1,5.9237585E0,4.3039474E0,1.3149251E0,3.1537256E-1,6.8599486E0,-3.8349211E0,-9.902053E-1,1.1955388E1,3.2731202E-1,1.5062778E1,2.4167101E0,-1.0466766E0,-3.63866E0,5.0319E0,1.0638539E1,-3.784717E0,-6.217354E-1],"split_indices":[1,1,2,2,2,2,2,0,2,2,2,1,2,2,2,2,2,1,1,2,2,1,2,1,2,2,1,2,2,2,2,2,0,0,1,2,1,2,2,2,2,2,1,0,1,0,1,1,1,1,2,0,1,2,0,1,2,0,0,0,0,0,0,0,0,0,0,0,0,0,0,0,0,0,0,0,0,0,0,0,0,0,0,0,0,0,0,0,0,0,0,0,0,0,0,0,0,0,0,0,0],"split_type":[0,0,0,0,0,0,0,0,0,0,0,0,0,0,0,0,0,0,0,0,0,0,0,0,0,0,0,0,0,0,0,0,0,0,0,0,0,0,0,0,0,0,0,0,0,0,0,0,0,0,0,0,0,0,0,0,0,0,0,0,0,0,0,0,0,0,0,0,0,0,0,0,0,0,0,0,0,0,0,0,0,0,0,0,0,0,0,0,0,0,0,0,0,0,0,0,0,0,0,0,0],"sum_hessian":[5.646E3,1.668E3,3.978E3,2.32E2,1.436E3,4.12E2,3.566E3,1.3E1,2.19E2,2.27E2,1.209E3,1.66E2,2.46E2,2.227E3,1.339E3,1.77E2,4.2E1,5.8E1,1.69E2,5.86E2,6.23E2,1.15E2,5.1E1,8.2E1,1.64E2,2.14E3,8.7E1,2.42E2,1.097E3,1.51E2,2.6E1,3.1E1,1.1E1,1.1E1,4.7E1,2.4E1,1.45E2,1.27E2,4.59E2,1.41E2,4.82E2,5.2E1,6.3E1,2.6E1,2.5E1,2.1E1,6.1E1,8.9E1,7.5E1,1.69E2,1.971E3,1E1,7.7E1,1.72E2,7E1,8.9E1,1.008E3,1.41E2,1E1,1E1,1.6E1,1.5E1,1.6E1,3.7E1,1E1,1.5E1,9E0,1.13E2,3.2E1,9.4E1,3.3E1,2.51E2,2.08E2,5.8E1,8.3E1,3E1,4.52E2,2.9E1,2.3E1,5.2E1,1.1E1,1.6E1,9E0,4.5E1,1.6E1,1.1E1,7.8E1,2.2E1,5.3E1,1.42E2,2.7E1,8.6E1,1.885E3,6.9E1,8E0,9.2E1,8E1,5E1,3.9E1,8.6E1,9.22E2],"tree_param":{"num_deleted":"0","num_feature":"3","num_nodes":"101","size_leaf_vector":"1"}},{"base_weights":[-1.8155415E-1,-5.8809857E0,5.3848877E0,7.5672064E0,-7.1145887E0,1.4917419E1,-2.1269665E0,3.971145E1,4.2428317E0,-1.1557447E1,-1.7119148E0,9.7768135E0,1.1799498E2,-1.6569883E1,2.0145001E0,-5.7226986E-1,1.1629169E1,8.394452E0,-7.139908E0,-2.109725E1,-9.668829E0,3.5611336E0,-4.7095385E0,1.8432495E1,-5.943225E0,1.267123E2,1.0317498E1,-2.3397614E-1,-2.4499624E1,6.903338E1,-1.4255049E0,1.6241863E0,2.3875807E1,-4.2495046E0,7.3622274E-1,-5.6587243E0,-2.6329702E1,-5.381687E0,-1.251729E1,-3.033572E0,2.0128134E1,-5.454921E0,-3.4380748E0,9.936417E0,1.0993661E2,-2.9809052E1,-1.5995773E0,1.5502183E1,2.7218039E1,-4.667257E0,8.205777E0,-3.740095E1,-1.9919725E1,8.349086E1,1.4077482E0,1.7305822E1,-6.2304544E0,7.9527026E-1,-5.3619375E0,6.103786E0,7.001239E-1,3.9068394E0,-1.1559579E0,1.1653634E0,-1.3945011E0,-6.1470838E0,-3.4887257E0,-1.3461858E0,8.029927E-1,-2.4114873E0,-9.462597E-1,1.8589535E-1,-2.6149867E0,1.2909647E1,3.4482127E-1,1.5676695E0,-7.441435E-1,3.4267166E0,-2.265269E0,1.8346767E1,9.594679E0,-1.8220924E0,-5.000664E0,1.7747449E0,-2.2948124E0,-1.4095682E0,5.962173E-2,2.1346899E-2,2.5422952E0,-3.920831E0,-5.9335685E0,4.3269128E-2,-4.6979547E0,8.34019E0,1.6006277E1,-9.109415E-1,1.301957E1,-3.5415971E0,-3.4173897E-1],"categories":[],"categories_nodes":[],"categories_segments":[],"categories_sizes":[],"default_left":[0,0,0,0,0,0,0,0,0,0,0,0,0,0,0,0,0,0,0,0,0,0,0,0,0,0,0,0,0,0,0,0,0,0,0,0,0,0,0,0,0,0,0,0,0,0,0,0,0,0,0,0,0,0,0,0,0,0,0,0,0,0,0,0,0,0,0,0,0,0,0,0,0,0,0,0,0,0,0,0,0,0,0,0,0,0,0,0,0,0,0,0,0,0,0,0,0,0,0],"id":18,"left_children":[1,3,5,7,9,11,13,15,17,19,21,23,25,27,29,-1,-1,31,33,35,37,39,41,43,45,47,-1,49,51,53,55,57,59,-1,61,63,65,67,69,71,73,-1,75,77,79,81,83,-1,-1,85,87,89,91,93,-1,95,97,-1,-1,-1,-1,-1,-1,-1,-1,-1,-1,-1,-1,-1,-1,-1,-1,-1,-1,-1,-1,-1,-1,-1,-1,-1,-1,-1,-1,-1,-1,-1,-1,-1,-1,-1,-1,-1,-1,-1,-1,-1,-1],"loss_changes":[1.7997902E5,4.6554867E4,2.0554378E5,2.5050355E4,6.162072E4,6.6914606E5,9.609604E4,3.52179E4,1.022015E4,2.5182047E4,1.8352443E4,1.6420712E5,1.7764188E4,4.636939E4,2.8804944E5,0E0,0E0,1.652166E4,9.486122E3,1.8592281E4,1.4318094E4,4.6057195E4,2.909543E4,6.037451E5,4.4424492E4,4.6730188E4,0E0,4.453363E3,1.3494906E4,5.1970812E4,1.0712149E5,1.4838251E4,1.4759184E4,0E0,9.089063E3,2.8498674E3,7.433797E3,1.7353887E4,1.4600398E4,1.8142234E4,1.3812503E5,0E0,1.4119879E4,2.2178662E5,2.4558125E4,3.117504E3,6.4951652E4,0E0,0E0,1.8083009E3,2.7960776E3,8.830469E1,3.957939E4,2.4543344E4,0E0,3.8546134E5,6.414071E4,0E0,0E0,0E0,0E0,0E0,0E0,0E0,0E0,0E0,0E0,0E0,0E0,0E0,0E0,0E0,0E0,0E0,0E0,0E0,0E0,0E0,0E0,0E0,0E0,0E0,0E0,0E0,0E0,0E0,0E0,0E0,0E0,0E0,0E0,0E0,0E0,0E0,0E0,0E0,0E0,0E0,0E0],"parents":[2147483647,0,0,1,1,2,2,3,3,4,4,5,5,6,6,7,7,8,8,9,9,10,10,11,11,12,12,13,13,14,14,17,17,18,18,19,19,20,20,21,21,22,22,23,23,24,24,25,25,27,27,28,28,29,29,30,30,31,31,32,32,34,34,35,35,36,36,37,37,38,38,39,39,40,40,42,42,43,43,44,44,45,45,46,46,49,49,50,50,51,51,52,52,53,53,55,55,56,56],"right_children":[2,4,6,8,10,12,14,16,18,20,22,24,26,28,30,-1,-1,32,34,36,38,40,42,44,46,48,-1,50,52,54,56,58,60,-1,62,64,66,68,70,72,74,-1,76,78,80,82,84,-1,-1,86,88,90,92,94,-1,96,98,-1,-1,-1,-1,-1,-1,-1,-1,-1,-1,-1,-1,-1,-1,-1,-1,-1,-1,-1,-1,-1,-1,-1,-1,-1,-1,-1,-1,-1,-1,-1,-1,-1,-1,-1,-1,-1,-1,-1,-1,-1,-1],"split_conditions":[1.2E1,1E0,2.1E1,4E0,7E0,2E1,2.7E1,2E0,3.6E1,8E0,1.7E1,1.3E1,2.2E1,2.3E1,2.8E1,-5.7226986E-1,1.1629169E1,2.7E1,3.9E1,2E0,2.4E1,1.2E1,1.8E1,1.2E1,1.4E1,1.9E1,1.0317498E1,2E1,2.4E1,2.2E1,3.2E1,2.5E1,3.2E1,-4.2495046E0,4.1E1,2E0,3E0,2E1,4E1,9E0,1.3E1,-5.454921E0,2.1E1,8E0,2.2E1,1.4E1,1.7E1,1.5502183E1,2.7218039E1,2.2E1,2.2E1,1.4E1,2.5E1,1.7E1,1.4077482E0,3.1E1,3.5E1,7.9527026E-1,-5.3619375E0,6.103786E0,7.001239E-1,3.9068394E0,-1.1559579E0,1.1653634E0,-1.3945011E0,-6.1470838E0,-3.4887257E0,-1.3461858E0,8.029927E-1,-2.4114873E0,-9.462597E-1,1.8589535E-1,-2.6149867E0,1.2909647E1,3.4482127E-1,1.5676695E0,-7.441435E-1,3.4267166E0,-2.265269E0,1.8346767E1,9.594679E0,-1.8220924E0,-5.000664E0,1.7747449E0,-2.2948124E0,-1.4095682E0,5.962173E-2,2.1346899E-2,2.5422952E0,-3.920831E0,-5.9335685E0,4.3269128E-2,-4.6979547E0,8.34019E0,1.6006277E1,-9.109415E-1,1.301957E1,-3.5415971E0,-3.4173897E-1],"split_indices":[1,1,2,2,1,2,2,2,2,2,2,2,1,2,2,0,0,2,2,2,2,2,2,2,2,1,0,1,2,1,2,2,2,0,2,1,2,2,2,2,2,0,2,2,1,1,2,0,0,2,2,1,2,1,0,2,2,0,0,0,0,0,0,0,0,0,0,0,0,0,0,0,0,0,0,0,0,0,0,0,0,0,0,0,0,0,0,0,0,0,0,0,0,0,0,0,0,0,0],"split_type":[0,0,0,0,0,0,0,0,0,0,0,0,0,0,0,0,0,0,0,0,0,0,0,0,0,0,0,0,0,0,0,0,0,0,0,0,0,0,0,0,0,0,0,0,0,0,0,0,0,0,0,0,0,0,0,0,0,0,0,0,0,0,0,0,0,0,0,0,0,0,0,0,0,0,0,0,0,0,0,0,0,0,0,0,0,0,0,0,0,0,0,0,0,0,0,0,0,0,0],"sum_hessian":[5.671E3,2.802E3,2.869E3,2.35E2,2.567E3,1.264E3,1.605E3,2.1E1,2.14E2,1.408E3,1.159E3,1.205E3,5.9E1,3.57E2,1.248E3,1E1,1.1E1,1.57E2,5.7E1,2.31E2,1.177E3,4.2E2,7.39E2,7.77E2,4.28E2,4.9E1,1E1,1.17E2,2.4E2,6E1,1.188E3,1.1E2,4.7E1,1.5E1,4.2E1,5.9E1,1.72E2,4.71E2,7.06E2,3.01E2,1.19E2,2.8E1,7.11E2,7.12E2,6.5E1,6.5E1,3.63E2,3.5E1,1.4E1,7.7E1,4E1,6.1E1,1.79E2,4.8E1,1.2E1,2.42E2,9.46E2,1.01E2,9E0,2.5E1,2.2E1,1E1,3.2E1,1.2E1,4.7E1,3.2E1,1.4E2,3.56E2,1.15E2,4.63E2,2.43E2,2.32E2,6.9E1,2.5E1,9.4E1,6.7E1,6.44E2,4.73E2,2.39E2,5.2E1,1.3E1,1E1,5.5E1,1.83E2,1.8E2,4E1,3.7E1,2.1E1,1.9E1,9E0,5.2E1,6.3E1,1.16E2,2.2E1,2.6E1,1.81E2,6.1E1,1.79E2,7.67E2],"tree_param":{"num_deleted":"0","num_feature":"3","num_nodes":"99","size_leaf_vector":"1"}},{"base_weights":[3.8553763E-2,-5.326006E0,5.3077383E0,6.8144264E0,-6.3922706E0,-9.720661E0,7.7889605E0,3.553978E0,2.4227993E0,-1.1602374E1,-2.087599E0,-1.587993E1,-3.633803E0,9.808842E0,-2.3788729E0,5.3178043E0,-4.396296E-1,1.9484695E0,-1.3777805E1,-1.34832945E1,-1.9751029E-1,-2.5720024E0,-1.6841574E0,-1.8551562E0,-1.8274864E0,5.863306E0,1.56604185E1,2.1707191E0,-6.7004895E0,5.778231E-1,6.6000314E0,4.2792697E0,-1.0216018E0,-1.6143099E1,-8.719984E0,-5.499394E-1,-1.5460904E1,2.058385E0,-4.3865676E0,-3.6798959E0,-3.212748E-1,1.3093414E1,4.4453125E0,1.3939939E1,2.4613401E1,3.612359E-2,1.8141478E0,-9.777252E0,-1.2591037E0,1.2155557E0,7.6984036E-1,-1.5549181E-1,8.7829524E-1,-1.4993747E0,-2.7193303E0,2.791523E-1,-2.882386E0,-3.0081587E0,-1.3335074E0,-8.9196557E-1,5.693925E-1,-1.579484E0,2.5303814E-1,-2.2768795E-1,-8.567762E-1,7.965906E-2,-1.23239025E-1,1.6911229E0,2.557917E0,1.1370481E0,-2.1571992E-1,2.7525527E0,-5.708352E-1,5.8186035E0,2.949321E0,-5.2234095E-1,3.2831648E-1,-9.8086923E-1,-1.6353889E0,-4.6377352E-1,1.4727622E-1],"categories":[],"categories_nodes":[],"categories_segments":[],"categories_sizes":[],"default_left":[0,0,0,0,0,0,0,0,0,0,0,0,0,0,0,0,0,0,0,0,0,0,0,0,0,0,0,0,0,0,0,0,0,0,0,0,0,0,0,0,0,0,0,0,0,0,0,0,0,0,0,0,0,0,0,0,0,0,0,0,0,0,0,0,0,0,0,0,0,0,0,0,0,0,0,0,0,0,0,0,0],"id":19,"left_children":[1,3,5,7,9,11,13,15,-1,17,19,21,23,25,27,29,-1,31,33,35,37,-1,-1,39,-1,41,43,45,47,-1,49,51,-1,53,55,-1,57,59,61,63,65,67,69,71,73,75,-1,77,79,-1,-1,-1,-1,-1,-1,-1,-1,-1,-1,-1,-1,-1,-1,-1,-1,-1,-1,-1,-1,-1,-1,-1,-1,-1,-1,-1,-1,-1,-1,-1,-1],"loss_changes":[1.607536E5,3.6522344E4,1.0705729E5,6.686039E3,5.8086164E4,1.5200969E4,5.0607953E4,1.9339011E3,0E0,3.4576125E4,3.0582541E4,7.742422E2,3.0363552E3,4.735322E4,8.0561367E3,2.3582495E2,0E0,3.3135808E3,1.1942109E4,3.8901953E3,1.1528669E4,0E0,0E0,4.774355E2,0E0,1.2541805E4,1.23955E4,4.150618E3,3.5034785E3,0E0,1.10752686E2,1.01684644E3,0E0,7.1345156E3,3.4824305E4,0E0,4.6370586E3,1.0521646E4,1.5425598E4,3.221145E2,3.9014465E1,1.2966172E3,1.8156156E4,5.0605656E4,8.690078E3,1.2158726E3,0E0,3.546953E2,3.0810876E2,0E0,0E0,0E0,0E0,0E0,0E0,0E0,0E0,0E0,0E0,0E0,0E0,0E0,0E0,0E0,0E0,0E0,0E0,0E0,0E0,0E0,0E0,0E0,0E0,0E0,0E0,0E0,0E0,0E0,0E0,0E0,0E0],"parents":[2147483647,0,0,1,1,2,2,3,3,4,4,5,5,6,6,7,7,9,9,10,10,11,11,12,12,13,13,14,14,15,15,17,17,18,18,19,19,20,20,23,23,25,25,26,26,27,27,28,28,30,30,31,31,33,33,34,34,36,36,37,37,38,38,39,39,40,40,41,41,42,42,43,43,44,44,45,45,47,47,48,48],"right_children":[2,4,6,8,10,12,14,16,-1,18,20,22,24,26,28,30,-1,32,34,36,38,-1,-1,40,-1,42,44,46,48,-1,50,52,-1,54,56,-1,58,60,62,64,66,68,70,72,74,76,-1,78,80,-1,-1,-1,-1,-1,-1,-1,-1,-1,-1,-1,-1,-1,-1,-1,-1,-1,-1,-1,-1,-1,-1,-1,-1,-1,-1,-1,-1,-1,-1,-1,-1],"split_conditions":[1.2E1,1E0,1E0,5E0,6E0,1.8E1,2.2E1,4E0,2.4227993E0,1E0,1E0,1.7E1,2.3E1,1.8E1,2.3E1,2E0,-4.396296E-1,5E0,5E0,7E0,5E0,-2.5720024E0,-1.6841574E0,2E1,-1.8274864E0,1.3E1,6E0,6E0,5E0,5.778231E-1,3E0,2E0,-1.0216018E0,2E0,6E0,-5.499394E-1,1E1,7E0,6E0,1.9E1,2.1E1,5E0,5E0,5E0,1.9E1,3E0,1.8141478E0,2E0,6E0,1.2155557E0,7.6984036E-1,-1.5549181E-1,8.7829524E-1,-1.4993747E0,-2.7193303E0,2.791523E-1,-2.882386E0,-3.0081587E0,-1.3335074E0,-8.9196557E-1,5.693925E-1,-1.579484E0,2.5303814E-1,-2.2768795E-1,-8.567762E-1,7.965906E-2,-1.23239025E-1,1.6911229E0,2.557917E0,1.1370481E0,-2.1571992E-1,2.7525527E0,-5.708352E-1,5.8186035E0,2.949321E0,-5.2234095E-1,3.2831648E-1,-9.8086923E-1,-1.6353889E0,-4.6377352E-1,1.4727622E-1],"split_indices":[1,1,0,0,1,1,1,0,0,0,0,1,1,1,1,0,0,1,0,1,0,0,0,1,0,1,0,0,0,0,0,1,0,1,0,0,1,1,0,1,1,0,0,0,1,0,0,0,0,0,0,0,0,0,0,0,0,0,0,0,0,0,0,0,0,0,0,0,0,0,0,0,0,0,0,0,0,0,0,0,0],"split_type":[0,0,0,0,0,0,0,0,0,0,0,0,0,0,0,0,0,0,0,0,0,0,0,0,0,0,0,0,0,0,0,0,0,0,0,0,0,0,0,0,0,0,0,0,0,0,0,0,0,0,0,0,0,0,0,0,0,0,0,0,0,0,0,0,0,0,0,0,0,0,0,0,0,0,0,0,0,0,0,0,0],"sum_hessian":[5.685E3,2.817E3,2.868E3,2.27E2,2.59E3,4.06E2,2.462E3,1.68E2,5.9E1,1.171E3,1.419E3,2.01E2,2.05E2,2.054E3,4.08E2,1.32E2,3.6E1,1.62E2,1.009E3,2.01E2,1.218E3,1.65E2,3.6E1,1.7E2,3.5E1,1.228E3,8.26E2,1.99E2,2.09E2,6.2E1,7E1,1.28E2,3.4E1,6.86E2,3.23E2,3.4E1,1.67E2,7.92E2,4.26E2,7.7E1,9.3E1,2E2,1.028E3,6.95E2,1.31E2,1.64E2,3.5E1,1.33E2,7.6E1,3.5E1,3.5E1,2.8E1,1E2,1.46E2,5.4E2,1.59E2,1.64E2,1.01E2,6.6E1,1.38E2,6.54E2,2.14E2,2.12E2,3.7E1,4E1,3.4E1,5.9E1,1.32E2,6.8E1,6.79E2,3.49E2,5.64E2,1.31E2,3.5E1,9.6E1,6.2E1,1.02E2,3.1E1,1.02E2,4.2E1,3.4E1],"tree_param":{"num_deleted":"0","num_feature":"3","num_nodes":"81","size_leaf_vector":"1"}},{"base_weights":[1.882011E-1,5.9913673E0,-4.441144E0,2.6446157E0,7.2213066E1,-1.1813175E1,-2.4101033E0,7.888047E0,-7.1312475E0,5.1418022E1,1.2844246E2,-2.5291715E0,-1.6149597E1,1.8008364E1,-4.531019E0,2.9093113E0,6.502066E1,-1.6493529E0,-1.4113202E1,3.695454E1,1.0995136E1,2.3627253E1,1.0894656E1,-6.8332443E0,1.7587662E0,-1.0119449E1,-2.33321E1,-2.5700334E-1,3.6433407E1,-2.1865208E1,-2.4614573E0,8.103397E0,-1.2929874E1,-1.0711096E1,8.5018E1,-1.5074587E1,1.1955048E1,-3.0844946E1,-5.791801E0,1.0734914E1,2.7962502E1,-7.96877E0,-3.344827E-2,-1.9797809E0,1.13498955E1,-7.3974886E0,-1.7456022E1,-3.3268505E1,-1.9527536E1,5.665027E0,-3.3145254E0,4.9416847E1,4.974108E0,9.6520716E-1,-2.3123991E1,4.1545223E1,-5.2368197E0,-3.9976397E-1,3.5081341E0,-6.3086495E0,5.61424E-1,3.447282E0,-3.9545336E0,9.72371E0,1.4109784E1,-3.1275523E0,-1.5192498E0,-7.119165E-1,2.7018213E0,-2.8029199E0,-5.267552E0,1.5905575E0,-3.3502393E0,1.5203129E0,5.8771563E0,-1.7797301E0,-9.6991056E-1,2.594951E-1,-1.2983196E0,8.422163E-1,2.0565357E0,-2.3868399E0,-1.0205677E0,-1.194668E0,-4.1831017E0,-5.3131046E0,-3.4207716E0,-3.4797207E-1,-4.0853915E0,-2.1385124E0,8.4122616E-1,9.369473E0,5.47676E0,2.997399E0,-2.0871289E0,-4.5593176E0,-2.368816E0,-6.500681E-1,9.750946E0,-2.4651139E0,-4.0672362E-1],"categories":[],"categories_nodes":[],"categories_segments":[],"categories_sizes":[],"default_left":[0,0,0,0,0,0,0,0,0,0,0,0,0,0,0,0,0,0,0,0,0,0,0,0,0,0,0,0,0,0,0,0,0,0,0,0,0,0,0,0,0,0,0,0,0,0,0,0,0,0,0,0,0,0,0,0,0,0,0,0,0,0,0,0,0,0,0,0,0,0,0,0,0,0,0,0,0,0,0,0,0,0,0,0,0,0,0,0,0,0,0,0,0,0,0,0,0,0,0,0,0],"id":20,"left_children":[1,3,5,7,9,11,13,15,17,19,21,23,25,27,29,31,33,35,37,39,-1,-1,-1,41,43,45,47,49,51,53,55,57,59,61,63,65,67,69,71,-1,73,75,-1,77,79,81,83,85,87,-1,89,91,93,-1,95,97,99,-1,-1,-1,-1,-1,-1,-1,-1,-1,-1,-1,-1,-1,-1,-1,-1,-1,-1,-1,-1,-1,-1,-1,-1,-1,-1,-1,-1,-1,-1,-1,-1,-1,-1,-1,-1,-1,-1,-1,-1,-1,-1,-1,-1],"loss_changes":[1.5232348E5,5.57424E5,4.719604E4,1.22872984E5,1.3488019E5,2.7375773E4,1.07220266E5,4.4354997E5,3.2012344E4,2.4240812E4,3.7216938E4,4.035338E3,1.9860469E4,7.842324E4,8.037606E4,1.18244625E5,1.9021488E5,8.602208E4,5.105857E4,1.4563266E4,0E0,0E0,0E0,8.1687646E2,3.966728E3,4.943213E3,7.3269297E3,1.3615938E4,4.7134375E4,8.628289E3,2.4497508E5,1.729185E5,1.6780494E5,1.4271525E4,9.870375E3,6.3775195E3,2.2482285E4,4.978922E3,6.5023746E4,0E0,8.1748594E3,4.7966992E2,0E0,1.938165E3,3.1096655E2,9.8525684E2,6.309133E3,1.8613281E2,1.9338672E4,0E0,